{"learner":{"attributes":{"scikit_learn":"{\"_estimator_type\": \"classifier\"}"},"feature_names":[],"feature_types":[],"gradient_booster":{"model":{"cats":{"enc":[],"feature_segments":[],"sorted_idx":[]},"gbtree_model_param":{"num_parallel_tree":"1","num_trees":"300"},"iteration_indptr":[0,1,2,3,4,5,6,7,8,9,10,11,12,13,14,15,16,17,18,19,20,21,22,23,24,25,26,27,28,29,30,31,32,33,34,35,36,37,38,39,40,41,42,43,44,45,46,47,48,49,50,51,52,53,54,55,56,57,58,59,60,61,62,63,64,65,66,67,68,69,70,71,72,73,74,75,76,77,78,79,80,81,82,83,84,85,86,87,88,89,90,91,92,93,94,95,96,97,98,99,100,101,102,103,104,105,106,107,108,109,110,111,112,113,114,115,116,117,118,119,120,121,122,123,124,125,126,127,128,129,130,131,132,133,134,135,136,137,138,139,140,141,142,143,144,145,146,147,148,149,150,151,152,153,154,155,156,157,158,159,160,161,162,163,164,165,166,167,168,169,170,171,172,173,174,175,176,177,178,179,180,181,182,183,184,185,186,187,188,189,190,191,192,193,194,195,196,197,198,199,200,201,202,203,204,205,206,207,208,209,210,211,212,213,214,215,216,217,218,219,220,221,222,223,224,225,226,227,228,229,230,231,232,233,234,235,236,237,238,239,240,241,242,243,244,245,246,247,248,249,250,251,252,253,254,255,256,257,258,259,260,261,262,263,264,265,266,267,268,269,270,271,272,273,274,275,276,277,278,279,280,281,282,283,284,285,286,287,288,289,290,291,292,293,294,295,296,297,298,299,300],"tree_info":[0,0,0,0,0,0,0,0,0,0,0,0,0,0,0,0,0,0,0,0,0,0,0,0,0,0,0,0,0,0,0,0,0,0,0,0,0,0,0,0,0,0,0,0,0,0,0,0,0,0,0,0,0,0,0,0,0,0,0,0,0,0,0,0,0,0,0,0,0,0,0,0,0,0,0,0,0,0,0,0,0,0,0,0,0,0,0,0,0,0,0,0,0,0,0,0,0,0,0,0,0,0,0,0,0,0,0,0,0,0,0,0,0,0,0,0,0,0,0,0,0,0,0,0,0,0,0,0,0,0,0,0,0,0,0,0,0,0,0,0,0,0,0,0,0,0,0,0,0,0,0,0,0,0,0,0,0,0,0,0,0,0,0,0,0,0,0,0,0,0,0,0,0,0,0,0,0,0,0,0,0,0,0,0,0,0,0,0,0,0,0,0,0,0,0,0,0,0,0,0,0,0,0,0,0,0,0,0,0,0,0,0,0,0,0,0,0,0,0,0,0,0,0,0,0,0,0,0,0,0,0,0,0,0,0,0,0,0,0,0,0,0,0,0,0,0,0,0,0,0,0,0,0,0,0,0,0,0,0,0,0,0,0,0,0,0,0,0,0,0,0,0,0,0,0,0,0,0,0,0,0,0,0,0,0,0,0,0,0,0,0,0,0,0,0,0,0,0,0,0],"trees":[{"base_weights":[4.1645713E-2,3.667461E-1,-2.510886E0,8.4128225E-1,-2.3110187E-1,5.012082E-2,-2.5688674E0,4.9113322E-2,5.6808554E-3,2.74207E-2,-3.1565618E-2,4.3998014E-2,-1.3056582E-1],"categories":[],"categories_nodes":[],"categories_segments":[],"categories_sizes":[],"default_left":[1,0,0,0,0,0,0,0,0,0,0,0,0],"id":0,"left_children":[1,3,5,7,9,-1,11,-1,-1,-1,-1,-1,-1],"loss_changes":[1.6229509E3,4.9254715E2,4.902832E1,9.8990295E1,2.4036755E2,0E0,3.5507446E1,0E0,0E0,0E0,0E0,0E0,0E0],"parents":[2147483647,0,0,1,1,2,2,3,3,4,4,6,6],"right_children":[2,4,6,8,10,-1,12,-1,-1,-1,-1,-1,-1],"split_conditions":[1E0,2.00001E0,6.6171867E-1,2.00001E0,2.00001E0,5.012082E-2,1E0,4.9113322E-2,5.6808554E-3,2.74207E-2,-3.1565618E-2,4.3998014E-2,-1.3056582E-1],"split_indices":[5660,5663,5640,5661,5668,0,5662,0,0,0,0,0,0],"split_type":[0,0,0,0,0,0,0,0,0,0,0,0,0],"sum_hessian":[1.9528593E3,1.7334092E3,2.1945009E2,9.6611835E2,7.672908E2,3.1382036E0,2.1631189E2,8.087599E2,1.5735849E2,2.6002258E2,5.072682E2,2.2415738E0,2.1407031E2],"tree_param":{"num_deleted":"0","num_feature":"5670","num_nodes":"13","size_leaf_vector":"1"}},{"base_weights":[3.99339E-2,7.6429254E-1,-7.0848876E-1,9.0988666E-1,-2.5042307E-1,1.680842E-1,-1.3106743E0,-4.4601794E-2,4.781633E-2,6.667519E-2,-2.2805816E-2,3.145876E-2,-2.4959324E-2,7.239231E-2,-7.25436E-2],"categories":[],"categories_nodes":[],"categories_segments":[],"categories_sizes":[],"default_left":[0,1,0,0,0,0,0,0,0,0,0,0,0,0,0],"id":1,"left_children":[1,3,5,7,9,11,13,-1,-1,-1,-1,-1,-1,-1,-1],"loss_changes":[1.0582975E3,1.4696729E2,5.072333E2,7.391815E1,4.1735374E1,1.2116252E2,2.2334119E2,0E0,0E0,0E0,0E0,0E0,0E0,0E0,0E0],"parents":[2147483647,0,0,1,1,2,2,3,3,4,4,5,5,6,6],"right_children":[2,4,6,8,10,12,14,-1,-1,-1,-1,-1,-1,-1,-1],"split_conditions":[2.00001E0,9.8199344E-1,-6.30332E-1,2.00001E0,9.5610005E-1,2.00001E0,9.944942E-1,-4.4601794E-2,4.781633E-2,6.667519E-2,-2.2805816E-2,3.145876E-2,-2.4959324E-2,7.239231E-2,-7.25436E-2],"split_indices":[5663,5654,1,5646,5663,5661,5638,0,0,0,0,0,0,0,0],"split_type":[0,0,0,0,0,0,0,0,0,0,0,0,0,0,0],"sum_hessian":[1.9491145E3,9.905325E2,9.585821E2,8.6646344E2,1.2406899E2,3.9073007E2,5.67852E2,2.102945E1,8.45434E2,1.3258923E1,1.1081007E2,2.3120233E2,1.5952774E2,2.6753216E1,5.410988E2],"tree_param":{"num_deleted":"0","num_feature":"5670","num_nodes":"15","size_leaf_vector":"1"}},{"base_weights":[-9.001326E-3,5.9778696E-1,-8.592546E-1,9.2841744E-1,-4.39366E-1,4.8064932E-1,-1.5340438E0,4.9454954E-2,-3.8626097E-2,-7.962653E-3,-1.0145364E-1,2.8373659E-2,-3.7944984E-2,6.927327E-2,-8.3191656E-2],"categories":[],"categories_nodes":[],"categories_segments":[],"categories_sizes":[],"default_left":[0,0,0,1,0,1,0,0,0,0,0,0,0,0,0],"id":2,"left_children":[1,3,5,7,9,11,13,-1,-1,-1,-1,-1,-1,-1,-1],"loss_changes":[9.9166125E2,3.852587E2,7.249923E2,8.900452E1,1.2044223E2,2.9599842E1,2.0537378E2,0E0,0E0,0E0,0E0,0E0,0E0,0E0,0E0],"parents":[2147483647,0,0,1,1,2,2,3,3,4,4,5,5,6,6],"right_children":[2,4,6,8,10,12,14,-1,-1,-1,-1,-1,-1,-1,-1],"split_conditions":[2.00001E0,5.0942856E-1,-1.0780951E0,1E0,1.5677776E0,9.8199344E-1,9.6972364E-1,4.9454954E-2,-3.8626097E-2,-7.962653E-3,-1.0145364E-1,2.8373659E-2,-3.7944984E-2,6.927327E-2,-8.3191656E-2],"split_indices":[5645,1,1,5659,1,5654,5638,0,0,0,0,0,0,0,0],"split_type":[0,0,0,0,0,0,0,0,0,0,0,0,0,0,0],"sum_hessian":[1.9190643E3,1.1200569E3,7.9900745E2,8.4950104E2,2.7055585E2,2.6770966E2,5.312978E2,8.209016E2,2.8599405E1,2.314811E2,3.907476E1,2.5102094E2,1.6688725E1,2.1963484E1,5.0933432E2],"tree_param":{"num_deleted":"0","num_feature":"5670","num_nodes":"15","size_leaf_vector":"1"}},{"base_weights":[1.2415295E-2,3.2807174E-1,-2.0967016E0,7.282022E-1,-3.298562E-1,-2.3030431E0,-1.2238529E0,4.9254086E-2,8.855197E-3,2.2151802E-2,-4.5162972E-2,3.9637096E-2,-1.1658966E-1,-2.7733011E-2,-1.0584717E-1],"categories":[],"categories_nodes":[],"categories_segments":[],"categories_sizes":[],"default_left":[1,0,0,0,0,0,0,0,0,0,0,0,0,0,0],"id":3,"left_children":[1,3,5,7,9,11,13,-1,-1,-1,-1,-1,-1,-1,-1],"loss_changes":[1.289279E3,4.4390475E2,4.0823242E1,1.4800311E2,2.8341287E2,2.0914429E1,2.8747276E1,0E0,0E0,0E0,0E0,0E0,0E0,0E0,0E0],"parents":[2147483647,0,0,1,1,2,2,3,3,4,4,5,5,6,6],"right_children":[2,4,6,8,10,12,14,-1,-1,-1,-1,-1,-1,-1,-1],"split_conditions":[1E0,2.00001E0,1.0224746E0,6.5934026E-1,2.00001E0,2.00001E0,1.2837172E0,4.9254086E-2,8.855197E-3,2.2151802E-2,-4.5162972E-2,3.9637096E-2,-1.1658966E-1,-2.7733011E-2,-1.0584717E-1],"split_indices":[5660,5645,0,4,5668,329,4,0,0,0,0,0,0,0,0],"split_type":[0,0,0,0,0,0,0,0,0,0,0,0,0,0,0],"sum_hessian":[1.9337789E3,1.6831831E3,2.505959E2,1.0466415E3,6.365416E2,2.0060133E2,4.999457E1,7.129544E2,3.3368704E2,2.711816E2,3.6536002E2,1.4470277E0,1.9915431E2,3.00338E1,1.996077E1],"tree_param":{"num_deleted":"0","num_feature":"5670","num_nodes":"15","size_leaf_vector":"1"}},{"base_weights":[3.0993093E-2,3.189131E-1,-1.9557103E0,6.1600727E-1,-1.2203374E0,5.2744467E-2,-2.002687E0,3.9853647E-2,3.7095012E-4,-8.4013574E-2,-8.789404E-3,5.055774E-2,-1.0197828E-1],"categories":[],"categories_nodes":[],"categories_segments":[],"categories_sizes":[],"default_left":[1,1,0,0,0,0,0,0,0,0,0,0,0],"id":4,"left_children":[1,3,5,7,9,-1,11,-1,-1,-1,-1,-1,-1],"loss_changes":[1.1134489E3,7.786238E2,3.8109802E1,1.5707849E2,1.3174481E2,0E0,3.0221924E1,0E0,0E0,0E0,0E0,0E0,0E0],"parents":[2147483647,0,0,1,1,2,2,3,3,4,4,6,6],"right_children":[2,4,6,8,10,-1,12,-1,-1,-1,-1,-1,-1],"split_conditions":[1E0,1E0,8.587643E-1,2.00001E0,9.618535E-1,5.2744467E-2,7.2935605E-1,3.9853647E-2,3.7095012E-4,-8.4013574E-2,-8.789404E-3,5.055774E-2,-1.0197828E-1],"split_indices":[5660,5659,5638,5661,0,0,5652,0,0,0,0,0,0],"split_type":[0,0,0,0,0,0,0,0,0,0,0,0,0],"sum_hessian":[1.9437001E3,1.6988119E3,2.448882E2,1.4247771E3,2.7403476E2,3.2352848E0,2.4165291E2,1.0975946E3,3.271825E2,1.8955957E2,8.447518E1,2.4094043E0,2.392435E2],"tree_param":{"num_deleted":"0","num_feature":"5670","num_nodes":"13","size_leaf_vector":"1"}},{"base_weights":[2.963321E-2,3.1266296E-1,-1.8132186E0,5.830917E-1,-1.1296537E0,-2.0215564E0,-9.518637E-1,4.274292E-2,2.8965666E-3,-1.9098453E-2,-1.03141665E-1,4.659858E-2,-1.02827035E-1,-1.6771909E-2,-8.948862E-2],"categories":[],"categories_nodes":[],"categories_segments":[],"categories_sizes":[],"default_left":[1,1,0,0,0,0,0,0,0,0,0,0,0,0,0],"id":5,"left_children":[1,3,5,7,9,11,13,-1,-1,-1,-1,-1,-1,-1,-1],"loss_changes":[1.01844086E3,6.6120044E2,4.346582E1,2.0343616E2,1.8537686E2,2.446875E1,2.6550156E1,0E0,0E0,0E0,0E0,0E0,0E0,0E0,0E0],"parents":[2147483647,0,0,1,1,2,2,3,3,4,4,5,5,6,6],"right_children":[2,4,6,8,10,12,14,-1,-1,-1,-1,-1,-1,-1,-1],"split_conditions":[1E0,1E0,1.0224746E0,2.00001E0,2.00001E0,2.00001E0,1.2837172E0,4.274292E-2,2.8965666E-3,-1.9098453E-2,-1.03141665E-1,4.659858E-2,-1.02827035E-1,-1.6771909E-2,-8.948862E-2],"split_indices":[5660,5659,0,5645,5658,3110,4,0,0,0,0,0,0,0,0],"split_type":[0,0,0,0,0,0,0,0,0,0,0,0,0,0,0],"sum_hessian":[1.9497572E3,1.6913025E3,2.5845468E2,1.4250704E3,2.6623218E2,2.0639658E2,5.20581E1,9.383493E2,4.867211E2,1.490395E2,1.1719266E2,1.932451E0,2.0446413E2,3.127201E1,2.078609E1],"tree_param":{"num_deleted":"0","num_feature":"5670","num_nodes":"15","size_leaf_vector":"1"}},{"base_weights":[1.86193E-2,2.9052022E-1,-1.7091366E0,6.7567873E-1,-3.3613992E-1,5.1769882E-2,-1.7496467E0,4.9387615E-2,1.3060761E-2,2.4503311E-2,-3.873089E-2,4.8601884E-2,-8.905582E-2],"categories":[],"categories_nodes":[],"categories_segments":[],"categories_sizes":[],"default_left":[1,0,0,0,0,0,0,0,0,0,0,0,0],"id":6,"left_children":[1,3,5,7,9,-1,11,-1,-1,-1,-1,-1,-1],"loss_changes":[8.938924E2,3.972459E2,3.1554077E1,1.3128497E2,2.2767685E2,0E0,2.4566223E1,0E0,0E0,0E0,0E0,0E0,0E0],"parents":[2147483647,0,0,1,1,2,2,3,3,4,4,6,6],"right_children":[2,4,6,8,10,-1,12,-1,-1,-1,-1,-1,-1],"split_conditions":[1E0,2.00001E0,8.495277E-1,-4.2680332E-1,-1.1595066E0,5.1769882E-2,9.7067654E-1,4.9387615E-2,1.3060761E-2,2.4503311E-2,-3.873089E-2,4.8601884E-2,-8.905582E-2],"split_indices":[5660,5645,5662,1,1,0,5641,0,0,0,0,0,0],"split_type":[0,0,0,0,0,0,0,0,0,0,0,0,0],"sum_hessian":[1.9000125E3,1.6427887E3,2.572238E2,1.0174715E3,6.2531714E2,3.1697254E0,2.5405406E2,5.7911005E2,4.3836148E2,2.1666307E2,4.0865405E2,2.3551679E0,2.5169888E2],"tree_param":{"num_deleted":"0","num_feature":"5670","num_nodes":"13","size_leaf_vector":"1"}},{"base_weights":[-6.0113105E-3,2.4743694E-1,-1.5866779E0,5.201988E-1,-1.117284E0,-1.7653953E0,-7.858479E-1,4.094202E-2,4.7234194E-3,-2.5992144E-2,-9.314006E-2,5.0516225E-2,-8.993151E-2,2.1220243E-2,-6.242716E-2],"categories":[],"categories_nodes":[],"categories_segments":[],"categories_sizes":[],"default_left":[1,1,0,0,0,0,1,0,0,0,0,0,0,0,0],"id":7,"left_children":[1,3,5,7,9,11,13,-1,-1,-1,-1,-1,-1,-1,-1],"loss_changes":[7.680701E2,6.1574915E2,3.558258E1,1.7497772E2,1.210582E2,2.2666016E1,2.9516407E1,0E0,0E0,0E0,0E0,0E0,0E0,0E0,0E0],"parents":[2147483647,0,0,1,1,2,2,3,3,4,4,5,5,6,6],"right_children":[2,4,6,8,10,12,14,-1,-1,-1,-1,-1,-1,-1,-1],"split_conditions":[1E0,1E0,1.0224746E0,2.00001E0,2.00001E0,2.00001E0,9.921584E-1,4.094202E-2,4.7234194E-3,-2.5992144E-2,-9.314006E-2,5.0516225E-2,-8.993151E-2,2.1220243E-2,-6.242716E-2],"split_indices":[5660,5659,0,5663,5658,3592,5650,0,0,0,0,0,0,0,0],"split_type":[0,0,0,0,0,0,0,0,0,0,0,0,0,0,0],"sum_hessian":[1.9139128E3,1.6504735E3,2.6343933E2,1.3763824E3,2.740911E2,2.1379599E2,4.9643353E1,8.0798016E2,5.684022E2,1.536441E2,1.20447E2,1.9722215E0,2.1182376E2,1.3704658E1,3.5938698E1],"tree_param":{"num_deleted":"0","num_feature":"5670","num_nodes":"15","size_leaf_vector":"1"}},{"base_weights":[4.395066E-2,2.9402685E-1,-1.5640326E0,5.503834E-1,-1.034621E0,6.0396846E-2,-1.6091868E0,3.9719623E-2,5.4902495E-3,7.176182E-2,-5.8339547E-2,5.0297547E-2,-8.203375E-2],"categories":[],"categories_nodes":[],"categories_segments":[],"categories_sizes":[],"default_left":[1,1,0,0,0,0,0,0,0,0,0,0,0],"id":8,"left_children":[1,3,5,7,9,-1,11,-1,-1,-1,-1,-1,-1],"loss_changes":[7.6214026E2,5.59514E2,3.488385E1,1.4771289E2,8.9240814E1,0E0,2.3263672E1,0E0,0E0,0E0,0E0,0E0,0E0],"parents":[2147483647,0,0,1,1,2,2,3,3,4,4,6,6],"right_children":[2,4,6,8,10,-1,12,-1,-1,-1,-1,-1,-1],"split_conditions":[1E0,1E0,8.6928964E-1,2.00001E0,9.848893E-1,6.0396846E-2,2.00001E0,3.9719623E-2,5.4902495E-3,7.176182E-2,-5.8339547E-2,5.0297547E-2,-8.203375E-2],"split_indices":[5660,5659,5648,5645,5652,0,1721,0,0,0,0,0,0],"split_type":[0,0,0,0,0,0,0,0,0,0,0,0,0],"sum_hessian":[1.8924138E3,1.6388285E3,2.535854E2,1.3745662E3,2.6426236E2,3.4099548E0,2.5017545E2,8.8370514E2,4.90861E2,1.2633585E1,2.5162875E2,2.3864002E0,2.4778905E2],"tree_param":{"num_deleted":"0","num_feature":"5670","num_nodes":"13","size_leaf_vector":"1"}},{"base_weights":[-5.9101894E-3,6.0645247E-1,-5.689832E-1,7.3288596E-1,-2.6189616E-1,-2.7531105E-1,-1.4889997E0,-3.8004324E-2,3.8957823E-2,1.9908408E-2,-3.6774643E-2,6.9934204E-2,-1.9835897E-2,5.3563725E-2,-7.641041E-2],"categories":[],"categories_nodes":[],"categories_segments":[],"categories_sizes":[],"default_left":[0,1,1,0,0,0,0,0,0,0,0,0,0,0,0],"id":9,"left_children":[1,3,5,7,9,11,13,-1,-1,-1,-1,-1,-1,-1,-1],"loss_changes":[6.4093176E2,9.808682E1,2.6087247E2,5.4614197E1,3.6162136E1,1.5032365E2,2.5982788E1,0E0,0E0,0E0,0E0,0E0,0E0,0E0,0E0],"parents":[2147483647,0,0,1,1,2,2,3,3,4,4,5,5,6,6],"right_children":[2,4,6,8,10,12,14,-1,-1,-1,-1,-1,-1,-1,-1],"split_conditions":[2.00001E0,9.986464E-1,1E0,2.00001E0,-3.4539184E-1,9.944942E-1,2.00001E0,-3.8004324E-2,3.8957823E-2,1.9908408E-2,-3.6774643E-2,6.9934204E-2,-1.9835897E-2,5.3563725E-2,-7.641041E-2],"split_indices":[5663,5648,5660,5646,1,5638,1721,0,0,0,0,0,0,0,0],"split_type":[0,0,0,0,0,0,0,0,0,0,0,0,0,0,0],"sum_hessian":[1.8558342E3,8.888663E2,9.66968E2,7.7619916E2,1.1266713E2,7.345537E2,2.3241429E2,2.2572392E1,7.536268E2,4.7079258E1,6.5587875E1,4.854844E1,6.860053E2,2.871547E0,2.2954274E2],"tree_param":{"num_deleted":"0","num_feature":"5670","num_nodes":"15","size_leaf_vector":"1"}},{"base_weights":[1.60618E-2,2.4464446E-1,-1.4088622E0,6.549386E-1,-2.1638075E-1,-1.6015022E0,-5.964673E-1,3.814514E-2,-8.117047E-3,2.1931445E-2,-2.4740586E-2,4.6124157E-2,-8.135064E-2,-8.860594E-3,-8.07709E-2],"categories":[],"categories_nodes":[],"categories_segments":[],"categories_sizes":[],"default_left":[1,0,0,1,0,0,0,0,0,0,0,0,0,0,0],"id":10,"left_children":[1,3,5,7,9,11,13,-1,-1,-1,-1,-1,-1,-1,-1],"loss_changes":[6.055516E2,3.0336444E2,3.8568268E1,7.51015E1,1.3812926E2,1.5634216E1,2.1499321E1,0E0,0E0,0E0,0E0,0E0,0E0,0E0,0E0],"parents":[2147483647,0,0,1,1,2,2,3,3,4,4,5,5,6,6],"right_children":[2,4,6,8,10,12,14,-1,-1,-1,-1,-1,-1,-1,-1],"split_conditions":[1E0,2.00001E0,1.0224746E0,9.986464E-1,-1.0780951E0,2.00001E0,1.3055767E0,3.814514E-2,-8.117047E-3,2.1931445E-2,-2.4740586E-2,4.6124157E-2,-8.135064E-2,-8.860594E-3,-8.07709E-2],"split_indices":[5660,5663,0,5648,1,3110,2,0,0,0,0,0,0,0,0],"split_type":[0,0,0,0,0,0,0,0,0,0,0,0,0,0,0],"sum_hessian":[1.8564275E3,1.600924E3,2.555035E2,8.4684845E2,7.5407556E2,2.0525264E2,5.0250854E1,7.482282E2,9.862024E1,2.2456458E2,5.295109E2,1.4868188E0,2.0376582E2,3.6919178E1,1.3331677E1],"tree_param":{"num_deleted":"0","num_feature":"5670","num_nodes":"15","size_leaf_vector":"1"}},{"base_weights":[4.2820126E-3,5.749348E-1,-5.03757E-1,7.012803E-1,-2.548687E-1,3.213961E-1,-7.598275E-1,3.8896315E-2,-2.3024594E-2,6.30004E-2,-2.2953272E-2,-1.6345708E-2,3.2188796E-2,7.421621E-2,-4.386967E-2],"categories":[],"categories_nodes":[],"categories_segments":[],"categories_sizes":[],"default_left":[0,1,0,1,0,0,0,0,0,0,0,0,0,0,0],"id":11,"left_children":[1,3,5,7,9,11,13,-1,-1,-1,-1,-1,-1,-1,-1],"loss_changes":[5.3717615E2,9.181259E1,2.0750652E2,6.805832E1,3.6769E1,4.9063038E1,1.9938208E2,0E0,0E0,0E0,0E0,0E0,0E0,0E0,0E0],"parents":[2147483647,0,0,1,1,2,2,3,3,4,4,5,5,6,6],"right_children":[2,4,6,8,10,12,14,-1,-1,-1,-1,-1,-1,-1,-1],"split_conditions":[2.00001E0,9.8199344E-1,2.00001E0,1E0,9.2700094E-1,2.00001E0,9.891889E-1,3.8896315E-2,-2.3024594E-2,6.30004E-2,-2.2953272E-2,-1.6345708E-2,3.2188796E-2,7.421621E-2,-4.386967E-2],"split_indices":[5663,5654,5668,5659,5663,5647,5662,0,0,0,0,0,0,0,0],"split_type":[0,0,0,0,0,0,0,0,0,0,0,0,0,0,0],"sum_hessian":[1.8498589E3,8.7124066E2,9.786182E2,7.5642114E2,1.1481951E2,2.3158693E2,7.470313E2,7.1015173E2,4.6269417E1,1.2659176E1,1.0216033E2,7.680324E1,1.5478369E2,3.6276672E1,7.1075464E2],"tree_param":{"num_deleted":"0","num_feature":"5670","num_nodes":"15","size_leaf_vector":"1"}},{"base_weights":[1.6880488E-2,2.2776368E-1,-1.3394631E0,4.6446893E-1,-9.1437715E-1,5.829842E-2,-1.3859664E0,3.5587493E-2,1.6284345E-3,-1.572508E-2,-8.2233734E-2,5.5681657E-2,-7.1161084E-2],"categories":[],"categories_nodes":[],"categories_segments":[],"categories_sizes":[],"default_left":[1,1,0,0,0,0,0,0,0,0,0,0,0],"id":12,"left_children":[1,3,5,7,9,-1,11,-1,-1,-1,-1,-1,-1],"loss_changes":[5.271579E2,4.3188815E2,3.1338837E1,1.411369E2,1.1919563E2,0E0,2.5148071E1,0E0,0E0,0E0,0E0,0E0,0E0],"parents":[2147483647,0,0,1,1,2,2,3,3,4,4,6,6],"right_children":[2,4,6,8,10,-1,12,-1,-1,-1,-1,-1,-1],"split_conditions":[1E0,1E0,8.587643E-1,2.00001E0,2.00001E0,5.829842E-2,7.2935605E-1,3.5587493E-2,1.6284345E-3,-1.572508E-2,-8.2233734E-2,5.5681657E-2,-7.1161084E-2],"split_indices":[5660,5659,5638,5645,5658,0,5652,0,0,0,0,0,0],"split_type":[0,0,0,0,0,0,0,0,0,0,0,0,0],"sum_hessian":[1.8403046E3,1.5938206E3,2.4648409E2,1.3210205E3,2.728E2,3.7944288E0,2.4268965E2,8.3928906E2,4.8173145E2,1.5102722E2,1.2177276E2,2.8881738E0,2.3980148E2],"tree_param":{"num_deleted":"0","num_feature":"5670","num_nodes":"13","size_leaf_vector":"1"}},{"base_weights":[1.4792203E-2,2.1639448E-1,-1.2774234E0,4.335084E-1,-8.026291E-1,5.586787E-2,-1.3169856E0,3.0399373E-2,-6.2503438E-3,-1.3227105E-2,-7.366007E-2,5.374935E-2,-6.741787E-2],"categories":[],"categories_nodes":[],"categories_segments":[],"categories_sizes":[],"default_left":[1,1,0,0,0,0,0,0,0,0,0,0,0],"id":13,"left_children":[1,3,5,7,9,-1,11,-1,-1,-1,-1,-1,-1],"loss_changes":[4.7665735E2,3.5073193E2,2.5621277E1,1.2743906E2,9.97301E1,0E0,2.0484161E1,0E0,0E0,0E0,0E0,0E0,0E0],"parents":[2147483647,0,0,1,1,2,2,3,3,4,4,6,6],"right_children":[2,4,6,8,10,-1,12,-1,-1,-1,-1,-1,-1],"split_conditions":[1E0,1E0,7.2935605E-1,2.00001E0,2.00001E0,5.586787E-2,6.6171867E-1,3.0399373E-2,-6.2503438E-3,-1.3227105E-2,-7.366007E-2,5.374935E-2,-6.741787E-2],"split_indices":[5660,5659,5652,5661,5658,0,5640,0,0,0,0,0,0],"split_type":[0,0,0,0,0,0,0,0,0,0,0,0,0],"sum_hessian":[1.8269989E3,1.5815784E3,2.4542043E2,1.304583E3,2.769954E2,3.2833078E0,2.4213712E2,9.9408044E2,3.1050262E2,1.5492215E2,1.2207324E2,2.4473767E0,2.3968974E2],"tree_param":{"num_deleted":"0","num_feature":"5670","num_nodes":"13","size_leaf_vector":"1"}},{"base_weights":[2.6364636E-2,2.2475623E-1,-1.2609732E0,4.3034768E-1,-7.5669175E-1,6.0202803E-2,-1.2988633E0,3.0195463E-2,-5.8847214E-3,-1.1303116E-2,-7.2109655E-2,5.702245E-2,-6.659466E-2],"categories":[],"categories_nodes":[],"categories_segments":[],"categories_sizes":[],"default_left":[1,1,0,0,0,0,0,0,0,0,0,0,0],"id":14,"left_children":[1,3,5,7,9,-1,11,-1,-1,-1,-1,-1,-1],"loss_changes":[4.6312302E2,3.175401E2,2.4970276E1,1.2384097E2,9.851283E1,0E0,2.1572113E1,0E0,0E0,0E0,0E0,0E0,0E0],"parents":[2147483647,0,0,1,1,2,2,3,3,4,4,6,6],"right_children":[2,4,6,8,10,-1,12,-1,-1,-1,-1,-1,-1],"split_conditions":[1E0,1E0,8.6928964E-1,2.00001E0,2.00001E0,6.0202803E-2,7.144242E-1,3.0195463E-2,-5.8847214E-3,-1.1303116E-2,-7.2109655E-2,5.702245E-2,-6.659466E-2],"split_indices":[5660,5659,5648,5661,5658,0,5661,0,0,0,0,0,0],"split_type":[0,0,0,0,0,0,0,0,0,0,0,0,0],"sum_hessian":[1.8105867E3,1.5699565E3,2.4063016E2,1.2988257E3,2.7113086E2,2.9039025E0,2.3772626E2,9.86452E2,3.123737E2,1.5403598E2,1.1709487E2,2.4636376E0,2.3526262E2],"tree_param":{"num_deleted":"0","num_feature":"5670","num_nodes":"13","size_leaf_vector":"1"}},{"base_weights":[2.5956823E-2,2.2118476E-1,-1.2507362E0,4.540244E-1,-4.0707803E-1,5.276939E-2,-1.2857236E0,3.5253454E-2,4.0370887E-3,2.6898945E-2,-3.2979127E-2,5.5700045E-2,-6.5427236E-2],"categories":[],"categories_nodes":[],"categories_segments":[],"categories_sizes":[],"default_left":[1,0,0,0,0,0,0,0,0,0,0,0,0],"id":15,"left_children":[1,3,5,7,9,-1,11,-1,-1,-1,-1,-1,-1],"loss_changes":[4.4356113E2,2.2612015E2,2.1102478E1,1.0546735E2,1.0032129E2,0E0,1.4978302E1,0E0,0E0,0E0,0E0,0E0,0E0],"parents":[2147483647,0,0,1,1,2,2,3,3,4,4,6,6],"right_children":[2,4,6,8,10,-1,12,-1,-1,-1,-1,-1,-1],"split_conditions":[1E0,2.00001E0,8.495277E-1,-3.8609758E-1,-1.2458591E0,5.276939E-2,2.00001E0,3.5253454E-2,4.0370887E-3,2.6898945E-2,-3.2979127E-2,5.5700045E-2,-6.5427236E-2],"split_indices":[5660,5661,5662,1,1,0,3592,0,0,0,0,0,0],"split_type":[0,0,0,0,0,0,0,0,0,0,0,0,0],"sum_hessian":[1.7768588E3,1.5423291E3,2.3452972E2,1.1257074E3,4.1662173E2,2.8084755E0,2.3172125E2,6.7209827E2,4.5360904E2,8.740317E1,3.2921857E2,1.4659708E0,2.3025528E2],"tree_param":{"num_deleted":"0","num_feature":"5670","num_nodes":"13","size_leaf_vector":"1"}},{"base_weights":[2.7149169E-2,4.589255E-1,-5.131687E-1,7.446391E-1,-3.548735E-2,2.6234105E-1,-8.9243424E-1,3.8832154E-2,-3.9822694E-2,7.103592E-2,-8.190761E-3,1.7800173E-2,-4.111066E-2,7.286423E-2,-4.9590383E-2],"categories":[],"categories_nodes":[],"categories_segments":[],"categories_sizes":[],"default_left":[0,0,0,1,0,1,0,0,0,0,0,0,0,0,0],"id":16,"left_children":[1,3,5,7,9,11,13,-1,-1,-1,-1,-1,-1,-1,-1],"loss_changes":[4.081895E2,1.3749731E2,2.2897562E2,3.133609E1,6.703016E1,2.642736E1,1.24077576E2,0E0,0E0,0E0,0E0,0E0,0E0,0E0,0E0],"parents":[2147483647,0,0,1,1,2,2,3,3,4,4,5,5,6,6],"right_children":[2,4,6,8,10,12,14,-1,-1,-1,-1,-1,-1,-1,-1],"split_conditions":[2.00001E0,7.0098907E-1,2.00001E0,1E0,9.986464E-1,9.8199344E-1,9.9066836E-1,3.8832154E-2,-3.9822694E-2,7.103592E-2,-8.190761E-3,1.7800173E-2,-4.111066E-2,7.286423E-2,-4.9590383E-2],"split_indices":[5645,2,5668,5659,5648,5654,5652,0,0,0,0,0,0,0,0],"split_type":[0,0,0,0,0,0,0,0,0,0,0,0,0,0,0],"sum_hessian":[1.7466692E3,9.710774E2,7.755918E2,6.1507697E2,3.5600046E2,2.547947E2,5.207971E2,6.0335596E2,1.1720967E1,2.7545137E1,3.2845532E2,2.3555217E2,1.9242517E1,2.025914E1,5.0053796E2],"tree_param":{"num_deleted":"0","num_feature":"5670","num_nodes":"15","size_leaf_vector":"1"}},{"base_weights":[3.1167459E-2,2.1447729E-1,-1.1645775E0,4.1120207E-1,-6.8294734E-1,6.683708E-2,-1.2116226E0,3.2392908E-2,1.0747407E-3,-6.7392685E-3,-6.8887584E-2,6.0082585E-2,-6.282635E-2],"categories":[],"categories_nodes":[],"categories_segments":[],"categories_sizes":[],"default_left":[1,1,0,0,0,0,0,0,0,0,0,0,0],"id":17,"left_children":[1,3,5,7,9,-1,11,-1,-1,-1,-1,-1,-1],"loss_changes":[3.828269E2,2.6779266E2,2.9734955E1,1.1457922E2,1.0346852E2,0E0,2.7052582E1,0E0,0E0,0E0,0E0,0E0,0E0],"parents":[2147483647,0,0,1,1,2,2,3,3,4,4,6,6],"right_children":[2,4,6,8,10,-1,12,-1,-1,-1,-1,-1,-1],"split_conditions":[1E0,1E0,9.7067654E-1,2.00001E0,2.00001E0,6.683708E-2,2.00001E0,3.2392908E-2,1.0747407E-3,-6.7392685E-3,-6.8887584E-2,6.0082585E-2,-6.282635E-2],"split_indices":[5660,5659,5641,5645,5658,0,1721,0,0,0,0,0,0],"split_type":[0,0,0,0,0,0,0,0,0,0,0,0,0],"sum_hessian":[1.7437628E3,1.5131143E3,2.3064853E2,1.2418188E3,2.7129544E2,3.4596086E0,2.2718892E2,7.718501E2,4.6996872E2,1.5273273E2,1.1856271E2,3.4035952E0,2.2378532E2],"tree_param":{"num_deleted":"0","num_feature":"5670","num_nodes":"13","size_leaf_vector":"1"}},{"base_weights":[2.2105336E-2,4.090241E-1,-4.4969842E-1,5.8906853E-1,-4.4667998E-1,4.2235455E-1,-7.6956475E-1,4.5480564E-2,1.8355137E-2,6.231745E-2,-2.7945084E-2,2.4132643E-2,-4.2641114E-2,6.8451904E-2,-4.3707814E-2],"categories":[],"categories_nodes":[],"categories_segments":[],"categories_sizes":[],"default_left":[0,1,0,0,0,0,0,0,0,0,0,0,0,0,0],"id":18,"left_children":[1,3,5,7,9,11,13,-1,-1,-1,-1,-1,-1,-1,-1],"loss_changes":[3.1983923E2,1.487291E2,2.207078E2,5.601416E1,3.2915226E1,1.693668E1,1.3106464E2,0E0,0E0,0E0,0E0,0E0,0E0,0E0,0E0],"parents":[2147483647,0,0,1,1,2,2,3,3,4,4,5,5,6,6],"right_children":[2,4,6,8,10,12,14,-1,-1,-1,-1,-1,-1,-1,-1],"split_conditions":[2.00001E0,9.986464E-1,-1.1595066E0,-8.745664E-1,9.944942E-1,4.9125344E-2,9.6972364E-1,4.5480564E-2,1.8355137E-2,6.231745E-2,-2.7945084E-2,2.4132643E-2,-4.2641114E-2,6.8451904E-2,-4.3707814E-2],"split_indices":[5645,5648,1,1,5638,0,5638,0,0,0,0,0,0,0,0],"split_type":[0,0,0,0,0,0,0,0,0,0,0,0,0,0,0],"sum_hessian":[1.7490773E3,9.6121313E2,7.878641E2,7.946079E2,1.6660522E2,2.1122025E2,5.7664386E2,3.2302588E2,4.7158203E2,9.359107E0,1.5724612E2,2.0264844E2,8.571809E0,2.5996576E1,5.506473E2],"tree_param":{"num_deleted":"0","num_feature":"5670","num_nodes":"15","size_leaf_vector":"1"}},{"base_weights":[1.311859E-2,1.85719E-1,-1.1485387E0,3.8227984E-1,-7.124054E-1,5.6254335E-2,-1.1900781E0,2.744748E-2,-5.3644944E-3,7.342555E-2,-4.1677322E-2,5.698991E-2,-6.1240908E-2],"categories":[],"categories_nodes":[],"categories_segments":[],"categories_sizes":[],"default_left":[1,1,0,0,0,0,0,0,0,0,0,0,0],"id":19,"left_children":[1,3,5,7,9,-1,11,-1,-1,-1,-1,-1,-1],"loss_changes":[3.4470874E2,2.646887E2,2.3018433E1,1.00451065E2,7.2913864E1,0E0,1.9842285E1,0E0,0E0,0E0,0E0,0E0,0E0],"parents":[2147483647,0,0,1,1,2,2,3,3,4,4,6,6],"right_children":[2,4,6,8,10,-1,12,-1,-1,-1,-1,-1,-1],"split_conditions":[1E0,1E0,2.00001E0,2.00001E0,9.8199344E-1,5.6254335E-2,9.7067654E-1,2.744748E-2,-5.3644944E-3,7.342555E-2,-4.1677322E-2,5.698991E-2,-6.1240908E-2],"split_indices":[5660,5659,1568,5661,5648,0,5641,0,0,0,0,0,0],"split_type":[0,0,0,0,0,0,0,0,0,0,0,0,0],"sum_hessian":[1.7166083E3,1.495719E3,2.2088939E2,1.227947E3,2.6777197E2,3.2180333E0,2.1767136E2,9.1609326E2,3.118537E2,1.31695795E1,2.5460239E2,2.4546585E0,2.152167E2],"tree_param":{"num_deleted":"0","num_feature":"5670","num_nodes":"13","size_leaf_vector":"1"}},{"base_weights":[1.4293053E-2,4.9201638E-1,-3.9684314E-1,6.223115E-1,-3.793932E-1,7.2075054E-2,-4.8942453E-1,-3.4424257E-2,3.3252757E-2,6.1490383E-2,-2.7319068E-2,7.28369E-2,-2.8653368E-2],"categories":[],"categories_nodes":[],"categories_segments":[],"categories_sizes":[],"default_left":[0,1,0,0,0,0,0,0,0,0,0,0,0],"id":20,"left_children":[1,3,5,7,9,-1,11,-1,-1,-1,-1,-1,-1],"loss_changes":[3.3397247E2,8.968642E1,1.564845E2,3.9059906E1,2.865629E1,0E0,1.4296948E2,0E0,0E0,0E0,0E0,0E0,0E0],"parents":[2147483647,0,0,1,1,2,2,3,3,4,4,6,6],"right_children":[2,4,6,8,10,-1,12,-1,-1,-1,-1,-1,-1],"split_conditions":[2.00001E0,9.986464E-1,9.8789686E-1,2.00001E0,9.7727996E-1,7.2075054E-2,9.9424136E-1,-3.4424257E-2,3.3252757E-2,6.1490383E-2,-2.7319068E-2,7.28369E-2,-2.8653368E-2],"split_indices":[5663,5648,5648,5651,5663,0,5640,0,0,0,0,0,0],"split_type":[0,0,0,0,0,0,0,0,0,0,0,0,0],"sum_hessian":[1.6973503E3,7.8507434E2,9.1227594E2,6.8342993E2,1.0164445E2,4.26409E1,8.696351E2,2.079266E1,6.6263727E2,8.602233E0,9.304221E1,3.4771374E1,8.3486365E2],"tree_param":{"num_deleted":"0","num_feature":"5670","num_nodes":"13","size_leaf_vector":"1"}},{"base_weights":[1.1647999E-2,4.4799826E-1,-3.6054927E-1,6.578468E-2,3.4175977E-1,6.699031E-2,-4.561718E-1,2.366318E-2,-2.2822704E-2,2.7369821E-2,-3.0374486E-2],"categories":[],"categories_nodes":[],"categories_segments":[],"categories_sizes":[],"default_left":[0,0,0,0,1,0,0,0,0,0,0],"id":21,"left_children":[1,3,5,-1,7,-1,9,-1,-1,-1,-1],"loss_changes":[2.763533E2,7.1373184E1,1.5011676E2,0E0,7.380873E1,0E0,1.3269165E2,0E0,0E0,0E0,0E0],"parents":[2147483647,0,0,1,1,2,2,4,4,6,6],"right_children":[2,4,6,-1,8,-1,10,-1,-1,-1,-1],"split_conditions":[2.00001E0,9.811437E-1,9.944942E-1,6.578468E-2,9.8199344E-1,6.699031E-2,-1.240918E0,2.366318E-2,-2.2822704E-2,2.7369821E-2,-3.0374486E-2],"split_indices":[5663,5663,5638,0,5654,0,1,0,0,0,0],"split_type":[0,0,0,0,0,0,0,0,0,0,0],"sum_hessian":[1.6985493E3,7.8187335E2,9.16676E2,8.332276E1,6.9855054E2,4.7711395E1,8.6896466E2,6.00376E2,9.817457E1,1.1325426E2,7.557104E2],"tree_param":{"num_deleted":"0","num_feature":"5670","num_nodes":"11","size_leaf_vector":"1"}},{"base_weights":[8.705143E-3,1.6183864E-1,-1.0084319E0,3.3297583E-1,-5.9655195E-1,6.1080676E-2,-1.0529354E0,2.2175556E-2,-2.0917699E-2,-5.8759693E-3,-6.422973E-2,5.5671483E-2,-5.4751545E-2],"categories":[],"categories_nodes":[],"categories_segments":[],"categories_sizes":[],"default_left":[1,1,0,1,0,0,0,0,0,0,0,0,0],"id":22,"left_children":[1,3,5,7,9,-1,11,-1,-1,-1,-1,-1,-1],"loss_changes":[2.6028412E2,1.8884192E2,2.3612823E1,9.881569E1,8.794044E1,0E0,2.1454315E1,0E0,0E0,0E0,0E0,0E0,0E0],"parents":[2147483647,0,0,1,1,2,2,3,3,4,4,6,6],"right_children":[2,4,6,8,10,-1,12,-1,-1,-1,-1,-1,-1],"split_conditions":[1E0,1E0,6.6171867E-1,9.986464E-1,2.00001E0,6.1080676E-2,8.587643E-1,2.2175556E-2,-2.0917699E-2,-5.8759693E-3,-6.422973E-2,5.5671483E-2,-5.4751545E-2],"split_indices":[5660,5659,5640,5648,5658,0,5638,0,0,0,0,0,0],"split_type":[0,0,0,0,0,0,0,0,0,0,0,0,0],"sum_hessian":[1.6685547E3,1.4514009E3,2.1715378E2,1.1849747E3,2.664262E2,3.428568E0,2.1372522E2,1.033652E3,1.5132272E2,1.5819112E2,1.0823509E2,3.300883E0,2.1042433E2],"tree_param":{"num_deleted":"0","num_feature":"5670","num_nodes":"13","size_leaf_vector":"1"}},{"base_weights":[2.6329724E-2,4.5003682E-1,-3.298608E-1,7.6330346E-1,1.7363991E-1,7.084341E-2,-4.1750506E-1,4.311591E-2,1.7381052E-2,6.432804E-2,1.3383529E-3,7.079924E-2,-2.4903262E-2],"categories":[],"categories_nodes":[],"categories_segments":[],"categories_sizes":[],"default_left":[0,0,0,0,0,0,0,0,0,0,0,0,0],"id":23,"left_children":[1,3,5,7,9,-1,11,-1,-1,-1,-1,-1,-1],"loss_changes":[2.552692E2,6.659914E1,1.4144934E2,1.430864E1,6.7249405E1,0E0,1.303756E2,0E0,0E0,0E0,0E0,0E0,0E0],"parents":[2147483647,0,0,1,1,2,2,3,3,4,4,6,6],"right_children":[2,4,6,8,10,-1,12,-1,-1,-1,-1,-1,-1],"split_conditions":[2.00001E0,-8.3386064E-1,9.891889E-1,2.00001E0,9.715327E-1,7.084341E-2,9.7910494E-1,4.311591E-2,1.7381052E-2,6.432804E-2,1.3383529E-3,7.079924E-2,-2.4903262E-2],"split_indices":[5663,1,5662,5661,5663,0,5661,0,0,0,0,0,0],"split_type":[0,0,0,0,0,0,0,0,0,0,0,0,0],"sum_hessian":[1.6883604E3,7.710463E2,9.173141E2,3.600095E2,4.1103683E2,4.2686768E1,8.746273E2,2.892568E2,7.0752686E1,4.6484295E1,3.6455255E2,3.5713272E1,8.38914E2],"tree_param":{"num_deleted":"0","num_feature":"5670","num_nodes":"13","size_leaf_vector":"1"}},{"base_weights":[2.0105543E-2,1.5948154E-1,-9.6041954E-1,3.230809E-1,-5.785405E-1,-1.136256E0,-2.9794842E-1,2.1559406E-2,-2.0590244E-2,7.5425826E-2,-3.469984E-2,5.973159E-2,-5.9150923E-2,1.1396195E-2,-5.917555E-2],"categories":[],"categories_nodes":[],"categories_segments":[],"categories_sizes":[],"default_left":[1,1,0,1,0,0,0,0,0,0,0,0,0,0,0],"id":24,"left_children":[1,3,5,7,9,11,13,-1,-1,-1,-1,-1,-1,-1,-1],"loss_changes":[2.257735E2,1.749502E2,2.3297653E1,9.4445015E1,6.4853195E1,1.9756561E1,2.1584894E1,0E0,0E0,0E0,0E0,0E0,0E0,0E0,0E0],"parents":[2147483647,0,0,1,1,2,2,3,3,4,4,5,5,6,6],"right_children":[2,4,6,8,10,12,14,-1,-1,-1,-1,-1,-1,-1,-1],"split_conditions":[1E0,1E0,1.0224746E0,9.986464E-1,9.6107006E-1,2.00001E0,1.2933844E0,2.1559406E-2,-2.0590244E-2,7.5425826E-2,-3.469984E-2,5.973159E-2,-5.9150923E-2,1.1396195E-2,-5.917555E-2],"split_indices":[5660,5659,0,5648,5640,3110,2,0,0,0,0,0,0,0,0],"split_type":[0,0,0,0,0,0,0,0,0,0,0,0,0,0,0],"sum_hessian":[1.6494667E3,1.4453732E3,2.0409348E2,1.1839113E3,2.6146198E2,1.6031747E2,4.377599E1,1.0327429E3,1.5116829E2,1.271176E1,2.4875021E2,2.3868275E0,1.5793065E2,2.809399E1,1.5682E1],"tree_param":{"num_deleted":"0","num_feature":"5670","num_nodes":"15","size_leaf_vector":"1"}},{"base_weights":[4.4672783E-2,3.746E-1,-3.6333826E-1,5.180102E-1,-2.8662944E-1,4.2009604E-1,-6.378694E-1,3.9326545E-2,1.4664069E-2,6.4231716E-2,-2.062053E-2,2.6002234E-2,-1.600038E-2,7.570268E-2,-3.676554E-2],"categories":[],"categories_nodes":[],"categories_segments":[],"categories_sizes":[],"default_left":[0,1,0,0,0,1,0,0,0,0,0,0,0,0,0],"id":25,"left_children":[1,3,5,7,9,11,13,-1,-1,-1,-1,-1,-1,-1,-1],"loss_changes":[2.2118906E2,8.639926E1,1.5841492E2,4.4639114E1,3.2876236E1,1.4429832E1,1.1579846E2,0E0,0E0,0E0,0E0,0E0,0E0,0E0,0E0],"parents":[2147483647,0,0,1,1,2,2,3,3,4,4,5,5,6,6],"right_children":[2,4,6,8,10,12,14,-1,-1,-1,-1,-1,-1,-1,-1],"split_conditions":[2.00001E0,9.986464E-1,-1.1595066E0,1.24749534E-1,9.49757E-1,9.967817E-1,9.4341433E-1,3.9326545E-2,1.4664069E-2,6.4231716E-2,-2.062053E-2,2.6002234E-2,-1.600038E-2,7.570268E-2,-3.676554E-2],"split_indices":[5645,5648,1,4,5654,5641,5641,0,0,0,0,0,0,0,0],"split_type":[0,0,0,0,0,0,0,0,0,0,0,0,0,0,0],"sum_hessian":[1.6401112E3,9.07032E2,7.330792E2,7.4576373E2,1.6126823E2,1.8992561E2,5.431536E2,3.3786536E2,4.0789838E2,1.0869616E1,1.5039862E2,1.6784042E2,2.20852E1,2.2540016E1,5.206136E2],"tree_param":{"num_deleted":"0","num_feature":"5670","num_nodes":"15","size_leaf_vector":"1"}},{"base_weights":[3.2281503E-3,3.4108502E-1,-4.0138662E-1,6.9833237E-1,6.544902E-2,2.4952453E-1,-6.9136465E-1,3.863996E-2,1.3567157E-2,6.499437E-2,-2.5140685E-3,-8.3958795E-3,2.437454E-2,7.2949804E-2,-3.9960384E-2],"categories":[],"categories_nodes":[],"categories_segments":[],"categories_sizes":[],"default_left":[0,0,0,0,0,0,0,0,0,0,0,0,0,0,0],"id":26,"left_children":[1,3,5,7,9,11,13,-1,-1,-1,-1,-1,-1,-1,-1],"loss_changes":[2.2176851E2,8.6924644E1,1.3961893E2,1.1815918E1,7.178763E1,2.2850761E1,1.2021329E2,0E0,0E0,0E0,0E0,0E0,0E0,0E0,0E0],"parents":[2147483647,0,0,1,1,2,2,3,3,4,4,5,5,6,6],"right_children":[2,4,6,8,10,12,14,-1,-1,-1,-1,-1,-1,-1,-1],"split_conditions":[2.00001E0,2.5012723E-1,-1.0780951E0,2.00001E0,9.944942E-1,2.00001E0,9.900762E-1,3.863996E-2,1.3567157E-2,6.499437E-2,-2.5140685E-3,-8.3958795E-3,2.437454E-2,7.2949804E-2,-3.9960384E-2],"split_indices":[5645,2,1,5661,5638,5646,5650,0,0,0,0,0,0,0,0],"split_type":[0,0,0,0,0,0,0,0,0,0,0,0,0,0,0],"sum_hessian":[1.6193204E3,8.827223E2,7.3659814E2,3.8328705E2,4.9943524E2,2.2697462E2,5.096235E2,3.2513467E2,5.815238E1,4.156784E1,4.578674E2,8.241789E1,1.4455673E2,2.3395853E1,4.8622766E2],"tree_param":{"num_deleted":"0","num_feature":"5670","num_nodes":"15","size_leaf_vector":"1"}},{"base_weights":[2.8015988E-2,1.6770674E-1,-9.515274E-1,6.653092E-2,8.560388E-2,-5.11408E-1,-1.1581897E0,6.3895725E-2,-7.231246E-5,5.892558E-2,-3.0068701E-2,5.865085E-2,-5.9794497E-2],"categories":[],"categories_nodes":[],"categories_segments":[],"categories_sizes":[],"default_left":[1,0,0,0,0,0,0,0,0,0,0,0,0],"id":27,"left_children":[1,3,5,-1,7,9,11,-1,-1,-1,-1,-1,-1],"loss_changes":[2.235151E2,1.3621658E2,1.7487152E1,0E0,1.3893318E2,1.1340694E1,1.4180695E1,0E0,0E0,0E0,0E0,0E0,0E0],"parents":[2147483647,0,0,1,1,2,2,4,4,5,5,6,6],"right_children":[2,4,6,-1,8,10,12,-1,-1,-1,-1,-1,-1],"split_conditions":[1E0,9.8498964E-1,2.00001E0,6.653092E-2,9.944942E-1,2.00001E0,2.00001E0,6.3895725E-2,-7.231246E-5,5.892558E-2,-3.0068701E-2,5.865085E-2,-5.9794497E-2],"split_indices":[5660,5661,5645,0,5638,3628,3592,0,0,0,0,0,0],"split_type":[0,0,0,0,0,0,0,0,0,0,0,0,0],"sum_hessian":[1.6308099E3,1.4284471E3,2.0236278E2,9.261485E1,1.3358324E3,6.647969E1,1.3588307E2,8.957449E1,1.2462578E3,2.386725E0,6.409297E1,1.4014324E0,1.3448164E2],"tree_param":{"num_deleted":"0","num_feature":"5670","num_nodes":"13","size_leaf_vector":"1"}},{"base_weights":[9.058084E-3,3.7154722E-1,-2.912656E-1,6.353919E-2,2.6419044E-1,7.080952E-2,-3.7530205E-1,2.2289617E-2,-1.19118495E-2,7.18419E-2,-2.2693677E-2],"categories":[],"categories_nodes":[],"categories_segments":[],"categories_sizes":[],"default_left":[0,0,0,0,1,0,0,0,0,0,0],"id":28,"left_children":[1,3,5,-1,7,-1,9,-1,-1,-1,-1],"loss_changes":[1.7448871E2,6.946347E1,1.2644719E2,0E0,5.9566517E1,0E0,1.1998787E2,0E0,0E0,0E0,0E0],"parents":[2147483647,0,0,1,1,2,2,4,4,6,6],"right_children":[2,4,6,-1,8,-1,10,-1,-1,-1,-1],"split_conditions":[2.00001E0,9.811437E-1,9.9066836E-1,6.353919E-2,9.921584E-1,7.080952E-2,9.690442E-1,2.2289617E-2,-1.19118495E-2,7.18419E-2,-2.2693677E-2],"split_indices":[5663,5663,5652,0,5650,0,5644,0,0,0,0],"split_type":[0,0,0,0,0,0,0,0,0,0,0],"sum_hessian":[1.5997477E3,7.248431E2,8.749046E2,7.547406E1,6.49369E2,3.986936E1,8.350353E2,4.7723938E2,1.7212962E2,3.3570713E1,8.0146454E2],"tree_param":{"num_deleted":"0","num_feature":"5670","num_nodes":"11","size_leaf_vector":"1"}},{"base_weights":[-2.3687438E-3,3.2891208E-1,-3.9780903E-1,7.7763474E-1,8.433177E-2,6.913397E-2,-4.923281E-1,4.9076434E-2,3.0324597E-2,6.535839E-2,-3.9201495E-4,7.635092E-3,-3.74435E-2],"categories":[],"categories_nodes":[],"categories_segments":[],"categories_sizes":[],"default_left":[0,0,0,0,0,0,0,0,0,0,0,0,0],"id":29,"left_children":[1,3,5,7,9,-1,11,-1,-1,-1,-1,-1,-1],"loss_changes":[2.0805898E2,9.464444E1,1.2279232E2,9.573486E0,6.338364E1,0E0,1.14206116E2,0E0,0E0,0E0,0E0,0E0,0E0],"parents":[2147483647,0,0,1,1,2,2,3,3,4,4,6,6],"right_children":[2,4,6,8,10,-1,12,-1,-1,-1,-1,-1,-1],"split_conditions":[2.00001E0,-8.3386064E-1,9.6582216E-1,2.00001E0,9.921584E-1,6.913397E-2,-1.1188008E0,4.9076434E-2,3.0324597E-2,6.535839E-2,-3.9201495E-4,7.635092E-3,-3.74435E-2],"split_indices":[5645,1,5661,5644,5650,0,1,0,0,0,0,0,0],"split_type":[0,0,0,0,0,0,0,0,0,0,0,0,0],"sum_hessian":[1.5851638E3,8.625557E2,7.2260815E2,3.0299103E2,5.595647E2,3.5342808E1,6.872654E2,1.3475786E2,1.6823315E2,3.7911358E1,5.216533E2,1.956229E2,4.9164246E2],"tree_param":{"num_deleted":"0","num_feature":"5670","num_nodes":"13","size_leaf_vector":"1"}},{"base_weights":[6.182806E-3,1.249677E-1,-8.8550484E-1,6.2464036E-2,4.085142E-2,6.2061545E-2,-9.29304E-1,6.601854E-2,-1.7769916E-3,-5.2667618E-2,-1.50083145E-2],"categories":[],"categories_nodes":[],"categories_segments":[],"categories_sizes":[],"default_left":[1,0,0,0,0,0,0,0,0,0,0],"id":30,"left_children":[1,3,5,-1,7,-1,9,-1,-1,-1,-1],"loss_changes":[1.6958313E2,1.3347502E2,1.9229523E1,0E0,1.289042E2,0E0,1.3852158E1,0E0,0E0,0E0,0E0],"parents":[2147483647,0,0,1,1,2,2,4,4,6,6],"right_children":[2,4,6,-1,8,-1,10,-1,-1,-1,-1],"split_conditions":[1E0,9.944942E-1,7.0546085E-1,6.2464036E-2,9.976283E-1,6.2061545E-2,1.070425E0,6.601854E-2,-1.7769916E-3,-5.2667618E-2,-1.50083145E-2],"split_indices":[5660,5638,5641,0,5652,0,3,0,0,0,0],"split_type":[0,0,0,0,0,0,0,0,0,0,0],"sum_hessian":[1.5987148E3,1.412017E3,1.8669789E2,9.675855E1,1.3152584E3,2.8937898E0,1.8380411E2,7.279852E1,1.24246E3,1.525543E2,3.1249794E1],"tree_param":{"num_deleted":"0","num_feature":"5670","num_nodes":"11","size_leaf_vector":"1"}},{"base_weights":[5.994936E-3,3.2752553E-1,-3.512929E-1,-3.472098E-1,4.6143147E-1,6.9087155E-2,-4.5517147E-1,2.1058775E-2,-4.283433E-2,3.023388E-2,5.931114E-4,6.284254E-2,-2.7496949E-2],"categories":[],"categories_nodes":[],"categories_segments":[],"categories_sizes":[],"default_left":[0,0,0,0,0,0,0,0,0,0,0,0,0],"id":31,"left_children":[1,3,5,7,9,-1,11,-1,-1,-1,-1,-1,-1],"loss_changes":[1.7955643E2,7.459374E1,1.3410744E2,5.421086E1,4.419084E1,0E0,1.1446141E2,0E0,0E0,0E0,0E0,0E0,0E0],"parents":[2147483647,0,0,1,1,2,2,3,3,4,4,6,6],"right_children":[2,4,6,8,10,-1,12,-1,-1,-1,-1,-1,-1],"split_conditions":[-3.8609758E-1,2.00001E0,9.986464E-1,-2.2071126E0,2.00001E0,6.9087155E-2,9.944942E-1,2.1058775E-2,-4.283433E-2,3.023388E-2,5.931114E-4,6.284254E-2,-2.7496949E-2],"split_indices":[1,5651,5648,2,5661,0,5638,0,0,0,0,0,0],"split_type":[0,0,0,0,0,0,0,0,0,0,0,0,0],"sum_hessian":[1.5600234E3,8.213125E2,7.3871094E2,1.3548488E2,6.858276E2,4.0676598E1,6.9803436E2,5.4042496E1,8.144239E1,5.195451E2,1.662825E2,3.559233E1,6.62442E2],"tree_param":{"num_deleted":"0","num_feature":"5670","num_nodes":"13","size_leaf_vector":"1"}},{"base_weights":[2.2208454E-2,3.408328E-1,-3.523665E-1,7.7844036E-1,1.3287781E-1,3.120424E-1,-5.9195167E-1,4.9075898E-2,3.3232715E-2,6.309062E-2,2.1817829E-3,1.890572E-2,-3.1994622E-2,7.042678E-2,-3.386356E-2],"categories":[],"categories_nodes":[],"categories_segments":[],"categories_sizes":[],"default_left":[0,0,0,0,0,1,0,0,0,0,0,0,0,0,0],"id":32,"left_children":[1,3,5,7,9,11,13,-1,-1,-1,-1,-1,-1,-1,-1],"loss_changes":[1.8560162E2,7.623385E1,1.1407351E2,5.101822E0,5.738046E1,1.2305241E1,9.112129E1,0E0,0E0,0E0,0E0,0E0,0E0,0E0,0E0],"parents":[2147483647,0,0,1,1,2,2,3,3,4,4,5,5,6,6],"right_children":[2,4,6,8,10,12,14,-1,-1,-1,-1,-1,-1,-1,-1],"split_conditions":[2.00001E0,-8.745664E-1,-1.1595066E0,-1.240918E0,9.986464E-1,9.8199344E-1,9.900762E-1,4.9075898E-2,3.3232715E-2,6.309062E-2,2.1817829E-3,1.890572E-2,-3.1994622E-2,7.042678E-2,-3.386356E-2],"split_indices":[5645,1,1,1,5648,5654,5650,0,0,0,0,0,0,0,0],"split_type":[0,0,0,0,0,0,0,0,0,0,0,0,0,0,0],"sum_hessian":[1.5521208E3,8.389163E2,7.132045E2,2.6875955E2,5.7015674E2,1.8878947E2,5.244151E2,9.208853E1,1.7667104E2,4.0243057E1,5.299137E2,1.7748015E2,1.1309322E1,2.045156E1,5.039635E2],"tree_param":{"num_deleted":"0","num_feature":"5670","num_nodes":"15","size_leaf_vector":"1"}},{"base_weights":[3.0180885E-2,1.930834E-1,-5.6851536E-1,6.58532E-2,1.253931E-1,6.6687696E-2,-6.622536E-1,6.368819E-2,2.8416067E-3,5.8913328E-2,-3.7155043E-2],"categories":[],"categories_nodes":[],"categories_segments":[],"categories_sizes":[],"default_left":[1,0,0,0,0,0,0,0,0,0,0],"id":33,"left_children":[1,3,5,-1,7,-1,9,-1,-1,-1,-1],"loss_changes":[1.5211667E2,9.2909485E1,6.0740967E1,0E0,9.096321E1,0E0,4.8732956E1,0E0,0E0,0E0,0E0],"parents":[2147483647,0,0,1,1,2,2,4,4,6,6],"right_children":[2,4,6,-1,8,-1,10,-1,-1,-1,-1],"split_conditions":[9.967817E-1,9.967817E-1,9.993466E-1,6.58532E-2,9.947704E-1,6.6687696E-2,9.444486E-1,6.368819E-2,2.8416067E-3,5.8913328E-2,-3.7155043E-2],"split_indices":[5641,5641,5656,0,5639,0,5663,0,0,0,0],"split_type":[0,0,0,0,0,0,0,0,0,0,0],"sum_hessian":[1.5569017E3,1.2248177E3,3.3208408E2,6.79166E1,1.1569011E3,1.4613654E1,3.174704E2,6.3611164E1,1.0932899E3,1.244972E1,3.050207E2],"tree_param":{"num_deleted":"0","num_feature":"5670","num_nodes":"11","size_leaf_vector":"1"}},{"base_weights":[9.181066E-3,6.5131746E-2,-6.673514E-2,6.378382E-2,-1.434997E-1,6.522231E-2,-1.0513332E-2],"categories":[],"categories_nodes":[],"categories_segments":[],"categories_sizes":[],"default_left":[0,0,0,0,0,0,0],"id":34,"left_children":[1,-1,3,-1,5,-1,-1],"loss_changes":[1.4990016E2,0E0,1.486404E2,0E0,1.3219858E2,0E0,0E0],"parents":[2147483647,0,0,2,2,4,4],"right_children":[2,-1,4,-1,6,-1,-1],"split_conditions":[9.967817E-1,6.5131746E-2,9.921584E-1,6.378382E-2,9.986464E-1,6.522231E-2,-1.0513332E-2],"split_indices":[5640,0,5650,0,5648,0,0],"split_type":[0,0,0,0,0,0,0],"sum_hessian":[1.5224835E3,8.313392E1,1.4393496E3,7.651811E1,1.3628314E3,5.8780487E1,1.304051E3],"tree_param":{"num_deleted":"0","num_feature":"5670","num_nodes":"7","size_leaf_vector":"1"}},{"base_weights":[4.408993E-3,2.8613454E-1,-3.342743E-1,8.00292E-1,8.434937E-2,6.746971E-2,-4.1185206E-1,4.967938E-2,3.3318073E-2,6.3051686E-2,4.8938784E-4,1.7622856E-2,-2.8825844E-2],"categories":[],"categories_nodes":[],"categories_segments":[],"categories_sizes":[],"default_left":[0,0,0,0,0,0,0,0,0,0,0,0,0],"id":35,"left_children":[1,3,5,7,9,-1,11,-1,-1,-1,-1,-1,-1],"loss_changes":[1.4779935E2,8.7559685E1,9.25974E1,5.0039215E0,5.330453E1,0E0,8.50901E1,0E0,0E0,0E0,0E0,0E0,0E0],"parents":[2147483647,0,0,1,1,2,2,3,3,4,4,6,6],"right_children":[2,4,6,8,10,-1,12,-1,-1,-1,-1,-1,-1],"split_conditions":[2.00001E0,-9.5597786E-1,9.9362093E-1,-1.240918E0,9.8789686E-1,6.746971E-2,-1.240918E0,4.967938E-2,3.3318073E-2,6.3051686E-2,4.8938784E-4,1.7622856E-2,-2.8825844E-2],"split_indices":[5645,1,5640,1,5639,0,1,0,0,0,0,0,0],"split_type":[0,0,0,0,0,0,0,0,0,0,0,0,0],"sum_hessian":[1.5460509E3,8.4428265E2,7.0176825E2,2.3656358E2,6.0771906E2,2.9770897E1,6.719973E2,9.2577E1,1.4398657E2,3.471165E1,5.730074E2,1.1870368E2,5.5329364E2],"tree_param":{"num_deleted":"0","num_feature":"5670","num_nodes":"13","size_leaf_vector":"1"}},{"base_weights":[2.5120413E-2,3.121604E-1,-3.1164375E-1,6.2178105E-2,2.414868E-1,3.0414185E-1,-5.355436E-1,3.2419346E-2,2.9618435E-3,-5.072827E-2,1.8289201E-2,7.5391315E-2,-3.0594042E-2],"categories":[],"categories_nodes":[],"categories_segments":[],"categories_sizes":[],"default_left":[0,0,0,0,0,0,0,0,0,0,0,0,0],"id":36,"left_children":[1,3,5,-1,7,9,11,-1,-1,-1,-1,-1,-1],"loss_changes":[1.475536E2,5.365145E1,9.709398E1,0E0,5.6823925E1,1.5781967E1,8.1733154E1,0E0,0E0,0E0,0E0,0E0,0E0],"parents":[2147483647,0,0,1,1,2,2,4,4,5,5,6,6],"right_children":[2,4,6,-1,8,10,12,-1,-1,-1,-1,-1,-1],"split_conditions":[2.00001E0,9.967817E-1,-1.1595066E0,6.2178105E-2,-8.745664E-1,-1.7877623E0,9.756102E-1,3.2419346E-2,2.9618435E-3,-5.072827E-2,1.8289201E-2,7.5391315E-2,-3.0594042E-2],"split_indices":[5645,5640,1,0,1,3,5658,0,0,0,0,0,0],"split_type":[0,0,0,0,0,0,0,0,0,0,0,0,0],"sum_hessian":[1.5234363E3,8.226551E2,7.007812E2,5.6164097E1,7.6649097E2,1.8659895E2,5.1418225E2,2.3575273E2,5.307383E2,7.2249675E0,1.79374E2,1.7457142E1,4.9672507E2],"tree_param":{"num_deleted":"0","num_feature":"5670","num_nodes":"13","size_leaf_vector":"1"}},{"base_weights":[8.060014E-3,3.5112575E-1,-2.6674694E-1,6.207323E-2,2.5235492E-1,6.7934744E-2,-3.4494558E-1,1.9334473E-2,-1.4915943E-2,7.000563E-2,-2.0629521E-2],"categories":[],"categories_nodes":[],"categories_segments":[],"categories_sizes":[],"default_left":[0,0,0,0,0,0,0,0,0,0,0],"id":37,"left_children":[1,3,5,-1,7,-1,9,-1,-1,-1,-1],"loss_changes":[1.4396745E2,5.911725E1,1.08350494E2,0E0,4.556098E1,0E0,9.638879E1,0E0,0E0,0E0,0E0],"parents":[2147483647,0,0,1,1,2,2,4,4,6,6],"right_children":[2,4,6,-1,8,-1,10,-1,-1,-1,-1],"split_conditions":[2.00001E0,9.811437E-1,9.891889E-1,6.207323E-2,2.00001E0,6.7934744E-2,9.690442E-1,1.9334473E-2,-1.4915943E-2,7.000563E-2,-2.0629521E-2],"split_indices":[5663,5663,5662,0,5661,0,5644,0,0,0,0],"split_type":[0,0,0,0,0,0,0,0,0,0,0],"sum_hessian":[1.5239915E3,6.777917E2,8.461997E2,6.584912E1,6.1194257E2,3.7655205E1,8.085445E2,4.9244177E2,1.195008E2,2.9014765E1,7.795297E2],"tree_param":{"num_deleted":"0","num_feature":"5670","num_nodes":"11","size_leaf_vector":"1"}},{"base_weights":[-3.1835143E-3,6.3590415E-2,-7.092113E-2,6.338086E-2,-1.38951E-1,2.9658422E-2,-1.2963951E-2],"categories":[],"categories_nodes":[],"categories_segments":[],"categories_sizes":[],"default_left":[0,0,0,0,0,0,0],"id":38,"left_children":[1,-1,3,-1,5,-1,-1],"loss_changes":[1.3019078E2,0E0,1.3061664E2,0E0,1.20433754E2,0E0,0E0],"parents":[2147483647,0,0,2,2,4,4],"right_children":[2,-1,4,-1,6,-1,-1],"split_conditions":[9.8498964E-1,6.3590415E-2,9.9196273E-1,6.338086E-2,-1.240918E0,2.9658422E-2,-1.2963951E-2],"split_indices":[5661,0,5650,0,1,0,0],"split_type":[0,0,0,0,0,0,0],"sum_hessian":[1.5057738E3,7.454326E1,1.4312306E3,6.787233E1,1.3633583E3,1.9149673E2,1.1718616E3],"tree_param":{"num_deleted":"0","num_feature":"5670","num_nodes":"7","size_leaf_vector":"1"}},{"base_weights":[1.8620742E-2,6.1020058E-2,-5.551188E-2,6.605107E-2,-1.19377315E-1,1.4199816E-2,-1.7331509E-2],"categories":[],"categories_nodes":[],"categories_segments":[],"categories_sizes":[],"default_left":[0,0,0,0,0,0,0],"id":39,"left_children":[1,-1,3,-1,5,-1,-1],"loss_changes":[1.3266345E2,0E0,1.2333583E2,0E0,1.2307202E2,0E0,0E0],"parents":[2147483647,0,0,2,2,4,4],"right_children":[2,-1,4,-1,6,-1,-1],"split_conditions":[9.944942E-1,6.1020058E-2,9.924835E-1,6.605107E-2,-8.745664E-1,1.4199816E-2,-1.7331509E-2],"split_indices":[5638,0,5644,0,1,0,0],"split_type":[0,0,0,0,0,0,0],"sum_hessian":[1.4851276E3,8.501911E1,1.4001084E3,6.070041E1,1.339408E3,4.8237613E2,8.5703186E2],"tree_param":{"num_deleted":"0","num_feature":"5670","num_nodes":"7","size_leaf_vector":"1"}},{"base_weights":[4.5116078E-2,6.405218E-2,-2.4002943E-2,6.2109467E-2,-8.4185176E-2,6.19734E-2,-7.2063245E-3],"categories":[],"categories_nodes":[],"categories_segments":[],"categories_sizes":[],"default_left":[0,0,0,0,0,0,0],"id":40,"left_children":[1,-1,3,-1,5,-1,-1],"loss_changes":[1.285472E2,0E0,1.0859655E2,0E0,1.0817497E2,0E0,0E0],"parents":[2147483647,0,0,2,2,4,4],"right_children":[2,-1,4,-1,6,-1,-1],"split_conditions":[9.967817E-1,6.405218E-2,9.8498964E-1,6.2109467E-2,9.921584E-1,6.19734E-2,-7.2063245E-3],"split_indices":[5640,0,5661,0,5650,0,0],"split_type":[0,0,0,0,0,0,0],"sum_hessian":[1.5012653E3,7.819499E1,1.4230702E3,6.315753E1,1.3599127E3,5.7564312E1,1.3023484E3],"tree_param":{"num_deleted":"0","num_feature":"5670","num_nodes":"7","size_leaf_vector":"1"}},{"base_weights":[-9.283028E-4,6.439576E-2,-7.02155E-2,2.0679341E-1,-3.8746405E-1,1.7648958E-2,-1.9179804E-2,-4.2177658E-3,-4.0979497E-2],"categories":[],"categories_nodes":[],"categories_segments":[],"categories_sizes":[],"default_left":[0,0,0,1,0,0,0,0,0],"id":41,"left_children":[1,-1,3,5,7,-1,-1,-1,-1],"loss_changes":[1.334465E2,0E0,1.2488203E2,6.5672386E1,8.656321E1,0E0,0E0,0E0,0E0],"parents":[2147483647,0,0,2,2,3,3,4,4],"right_children":[2,-1,4,6,8,-1,-1,-1,-1],"split_conditions":[9.976283E-1,6.439576E-2,2.00001E0,9.986464E-1,-3.8609758E-1,1.7648958E-2,-1.9179804E-2,-4.2177658E-3,-4.0979497E-2],"split_indices":[5652,0,5645,5648,1,0,0,0,0],"split_type":[0,0,0,0,0,0,0,0,0],"sum_hessian":[1.4927004E3,7.473293E1,1.4179675E3,7.5710254E2,6.60865E2,6.0746204E2,1.496405E2,3.896057E2,2.712593E2],"tree_param":{"num_deleted":"0","num_feature":"5670","num_nodes":"9","size_leaf_vector":"1"}},{"base_weights":[-2.1779782E-3,6.48395E-2,-6.838026E-2,5.9532136E-2,-1.3926551E-1,6.311844E-2,-1.022129E-2],"categories":[],"categories_nodes":[],"categories_segments":[],"categories_sizes":[],"default_left":[0,0,0,0,0,0,0],"id":42,"left_children":[1,-1,3,-1,5,-1,-1],"loss_changes":[1.2620768E2,0E0,1.2489521E2,0E0,1.2127193E2,0E0,0E0],"parents":[2147483647,0,0,2,2,4,4],"right_children":[2,-1,4,-1,6,-1,-1],"split_conditions":[9.897155E-1,6.48395E-2,9.944942E-1,5.9532136E-2,9.976283E-1,6.311844E-2,-1.022129E-2],"split_indices":[5644,0,5638,0,5652,0,0],"split_type":[0,0,0,0,0,0,0],"sum_hessian":[1.4660044E3,6.966673E1,1.3963376E3,7.308782E1,1.3232498E3,5.749105E1,1.2657588E3],"tree_param":{"num_deleted":"0","num_feature":"5670","num_nodes":"7","size_leaf_vector":"1"}},{"base_weights":[2.9861053E-2,1.3384216E-1,-7.8613913E-1,6.29402E-2,6.918428E-2,-9.7275156E-1,-1.9580325E-1,6.201909E-2,1.1263946E-4,3.372615E-2,-4.9952827E-2,1.7034948E-2,-5.5832844E-2],"categories":[],"categories_nodes":[],"categories_segments":[],"categories_sizes":[],"default_left":[1,0,0,0,0,0,0,0,0,0,0,0,0],"id":43,"left_children":[1,3,5,-1,7,9,11,-1,-1,-1,-1,-1,-1],"loss_changes":[1.24807076E2,9.4667046E1,1.7911034E1,0E0,9.6749374E1,6.494568E0,2.1365911E1,0E0,0E0,0E0,0E0,0E0,0E0],"parents":[2147483647,0,0,1,1,2,2,4,4,5,5,6,6],"right_children":[2,4,6,-1,8,10,12,-1,-1,-1,-1,-1,-1],"split_conditions":[1E0,9.966968E-1,1.0224746E0,6.29402E-2,9.967817E-1,7.2935605E-1,1.2837172E0,6.201909E-2,1.1263946E-4,3.372615E-2,-4.9952827E-2,1.7034948E-2,-5.5832844E-2],"split_indices":[5660,5648,0,0,5640,5652,4,0,0,0,0,0,0],"split_type":[0,0,0,0,0,0,0,0,0,0,0,0,0],"sum_hessian":[1.4683472E3,1.3036078E3,1.6473935E2,6.926355E1,1.2343442E3,1.24304184E2,4.043516E1,6.522449E1,1.1691198E3,1.3130466E0,1.22991135E2,2.607812E1,1.4357044E1],"tree_param":{"num_deleted":"0","num_feature":"5670","num_nodes":"13","size_leaf_vector":"1"}},{"base_weights":[4.032369E-3,6.1865386E-2,-6.2320873E-2,2.1059194E-1,-3.5359272E-1,-2.267085E-2,1.7861519E-2,6.77448E-2,-2.1550361E-2],"categories":[],"categories_nodes":[],"categories_segments":[],"categories_sizes":[],"default_left":[0,0,0,0,0,0,0,0,0],"id":44,"left_children":[1,-1,3,5,7,-1,-1,-1,-1],"loss_changes":[1.2032639E2,0E0,1.10936455E2,7.0381676E1,9.006677E1,0E0,0E0,0E0,0E0],"parents":[2147483647,0,0,2,2,3,3,4,4],"right_children":[2,-1,4,6,8,-1,-1,-1,-1],"split_conditions":[9.956367E-1,6.1865386E-2,-3.8609758E-1,2.00001E0,9.7067654E-1,-2.267085E-2,1.7861519E-2,6.77448E-2,-2.1550361E-2],"split_indices":[5640,0,1,5647,5641,0,0,0,0],"split_type":[0,0,0,0,0,0,0,0,0],"sum_hessian":[1.4660616E3,7.3576035E1,1.3924857E3,7.189364E2,6.7354926E2,1.2935777E2,5.895786E2,2.8067724E1,6.454815E2],"tree_param":{"num_deleted":"0","num_feature":"5670","num_nodes":"9","size_leaf_vector":"1"}},{"base_weights":[9.3367845E-3,1.5476175E-1,-5.289361E-1,6.3347645E-2,9.339146E-2,6.147129E-2,-6.051559E-1,6.056654E-2,1.5547293E-3,5.8282625E-2,-3.2921784E-2],"categories":[],"categories_nodes":[],"categories_segments":[],"categories_sizes":[],"default_left":[1,0,0,0,0,0,0,0,0,0,0],"id":45,"left_children":[1,3,5,-1,7,-1,9,-1,-1,-1,-1],"loss_changes":[1.1398075E2,7.7963745E1,4.2557228E1,0E0,7.563106E1,0E0,2.9204247E1,0E0,0E0,0E0,0E0],"parents":[2147483647,0,0,1,1,2,2,4,4,6,6],"right_children":[2,4,6,-1,8,-1,10,-1,-1,-1,-1],"split_conditions":[9.967817E-1,9.967817E-1,9.924835E-1,6.3347645E-2,9.921584E-1,6.147129E-2,9.606082E-1,6.056654E-2,1.5547293E-3,5.8282625E-2,-3.2921784E-2],"split_indices":[5641,5641,5644,0,5650,0,5661,0,0,0,0],"split_type":[0,0,0,0,0,0,0,0,0,0,0],"sum_hessian":[1.4535056E3,1.1453275E3,3.0817816E2,5.8267677E1,1.0870598E3,1.1806212E1,2.9637195E2,5.5833637E1,1.0312262E3,7.6871686E0,2.8868478E2],"tree_param":{"num_deleted":"0","num_feature":"5670","num_nodes":"11","size_leaf_vector":"1"}},{"base_weights":[-7.617334E-3,6.3205905E-2,-6.914296E-2,6.44661E-2,-1.2529476E-1,8.411877E-4,-3.2994583E-2],"categories":[],"categories_nodes":[],"categories_segments":[],"categories_sizes":[],"default_left":[0,0,0,0,1,0,0],"id":46,"left_children":[1,-1,3,-1,5,-1,-1],"loss_changes":[1.1359249E2,0E0,1.0586011E2,0E0,1.01322556E2,0E0,0E0],"parents":[2147483647,0,0,2,2,4,4],"right_children":[2,-1,4,-1,6,-1,-1],"split_conditions":[9.947704E-1,6.3205905E-2,9.80871E-1,6.44661E-2,9.986464E-1,8.411877E-4,-3.2994583E-2],"split_indices":[5639,0,5654,0,5648,0,0],"split_type":[0,0,0,0,0,0,0],"sum_hessian":[1.4501183E3,6.5490204E1,1.384628E3,5.358314E1,1.3310449E3,1.0525092E3,2.7853577E2],"tree_param":{"num_deleted":"0","num_feature":"5670","num_nodes":"7","size_leaf_vector":"1"}},{"base_weights":[2.0892315E-2,5.8809604E-2,-4.255314E-2,6.1772764E-2,-9.8971486E-2,6.0622364E-2,-7.788922E-3],"categories":[],"categories_nodes":[],"categories_segments":[],"categories_sizes":[],"default_left":[0,0,0,0,0,0,0],"id":47,"left_children":[1,-1,3,-1,5,-1,-1],"loss_changes":[1.0713844E2,0E0,9.989721E1,0E0,9.9068695E1,0E0,0E0],"parents":[2147483647,0,0,2,2,4,4],"right_children":[2,-1,4,-1,6,-1,-1],"split_conditions":[9.944942E-1,5.8809604E-2,9.976283E-1,6.1772764E-2,9.967817E-1,6.0622364E-2,-7.788922E-3],"split_indices":[5638,0,5652,0,5640,0,0],"split_type":[0,0,0,0,0,0,0],"sum_hessian":[1.4576018E3,7.459237E1,1.3830094E3,5.70721E1,1.3259373E3,5.3711174E1,1.2722262E3],"tree_param":{"num_deleted":"0","num_feature":"5670","num_nodes":"7","size_leaf_vector":"1"}},{"base_weights":[-1.8261246E-2,1.7152709E-1,-4.225978E-1,6.040762E-2,9.928774E-2,7.269497E-2,-4.9073288E-1,1.3821828E-2,-1.7527474E-2,1.425838E-2,-3.268112E-2],"categories":[],"categories_nodes":[],"categories_segments":[],"categories_sizes":[],"default_left":[0,0,0,0,0,0,0,0,0,0,0],"id":48,"left_children":[1,3,5,-1,7,-1,9,-1,-1,-1,-1],"loss_changes":[1.1082922E2,7.327195E1,5.9965996E1,0E0,7.347629E1,0E0,5.6735672E1,0E0,0E0,0E0,0E0],"parents":[2147483647,0,0,1,1,2,2,4,4,6,6],"right_children":[2,4,6,-1,8,-1,10,-1,-1,-1,-1],"split_conditions":[2.00001E0,9.8498964E-1,9.812971E-1,6.040762E-2,4.280171E-1,7.269497E-2,-1.240918E0,1.3821828E-2,-1.7527474E-2,1.425838E-2,-3.268112E-2],"split_indices":[5661,5661,5664,0,1,0,1,0,0,0,0],"split_type":[0,0,0,0,0,0,0,0,0,0,0],"sum_hessian":[1.4410039E3,9.811065E2,4.5989746E2,6.2289494E1,9.18817E2,1.4993322E1,4.4490414E2,6.597885E2,2.590285E2,7.689343E1,3.680107E2],"tree_param":{"num_deleted":"0","num_feature":"5670","num_nodes":"11","size_leaf_vector":"1"}},{"base_weights":[1.611127E-2,6.066958E-2,-4.5122575E-2,2.0044506E-1,-3.2866788E-1,2.7214942E-2,6.494416E-4,6.326797E-2,-1.9106248E-2],"categories":[],"categories_nodes":[],"categories_segments":[],"categories_sizes":[],"default_left":[0,0,0,0,0,0,0,0,0],"id":49,"left_children":[1,-1,3,5,7,-1,-1,-1,-1],"loss_changes":[1.0612328E2,0E0,9.591293E1,4.750692E1,5.5114326E1,0E0,0E0,0E0,0E0],"parents":[2147483647,0,0,2,2,3,3,4,4],"right_children":[2,-1,4,6,8,-1,-1,-1,-1],"split_conditions":[9.9196273E-1,6.066958E-2,2.00001E0,1.12391315E-1,9.966968E-1,2.7214942E-2,6.494416E-4,6.326797E-2,-1.9106248E-2],"split_indices":[5650,0,5645,4,5648,0,0,0,0],"split_type":[0,0,0,0,0,0,0,0,0],"sum_hessian":[1.4433021E3,6.893105E1,1.3743711E3,7.3655566E2,6.378154E2,2.5867514E2,4.7788052E2,1.953153E1,6.1828394E2],"tree_param":{"num_deleted":"0","num_feature":"5670","num_nodes":"9","size_leaf_vector":"1"}},{"base_weights":[1.5729083E-2,6.29088E-2,-4.1432258E-2,5.7730544E-2,-1.01882555E-1,6.0843766E-2,-7.7354456E-3],"categories":[],"categories_nodes":[],"categories_segments":[],"categories_sizes":[],"default_left":[0,0,0,0,0,0,0],"id":50,"left_children":[1,-1,3,-1,5,-1,-1],"loss_changes":[1.004857E2,0E0,9.777516E1,0E0,8.989037E1,0E0,0E0],"parents":[2147483647,0,0,2,2,4,4],"right_children":[2,-1,4,-1,6,-1,-1],"split_conditions":[9.924835E-1,6.29088E-2,9.944942E-1,5.7730544E-2,9.986464E-1,6.0843766E-2,-7.7354456E-3],"split_indices":[5644,0,5638,0,5648,0,0],"split_type":[0,0,0,0,0,0,0],"sum_hessian":[1.4105802E3,6.073302E1,1.3498473E3,6.355579E1,1.2862915E3,4.8195362E1,1.2380961E3],"tree_param":{"num_deleted":"0","num_feature":"5670","num_nodes":"7","size_leaf_vector":"1"}},{"base_weights":[6.804981E-3,9.828548E-2,-7.355294E-1,5.9989702E-2,4.3777656E-2,-9.2198557E-1,-1.7704776E-1,6.006367E-2,-5.662394E-4,5.3693153E-2,-4.792093E-2,4.2717684E-2,-2.9429663E-2],"categories":[],"categories_nodes":[],"categories_segments":[],"categories_sizes":[],"default_left":[1,0,0,0,0,0,1,0,0,0,0,0,0],"id":51,"left_children":[1,3,5,-1,7,9,11,-1,-1,-1,-1,-1,-1],"loss_changes":[9.62447E1,7.560575E1,1.5835373E1,0E0,7.697819E1,9.972298E0,1.809109E1,0E0,0E0,0E0,0E0,0E0,0E0],"parents":[2147483647,0,0,1,1,2,2,4,4,5,5,6,6],"right_children":[2,4,6,-1,8,10,12,-1,-1,-1,-1,-1,-1],"split_conditions":[1E0,9.986464E-1,1.0224746E0,5.9989702E-2,9.967817E-1,2.00001E0,9.921584E-1,6.006367E-2,-5.662394E-4,5.3693153E-2,-4.792093E-2,4.2717684E-2,-2.9429663E-2],"split_indices":[5660,5648,0,0,5640,2436,5650,0,0,0,0,0,0],"split_type":[0,0,0,0,0,0,0,0,0,0,0,0,0],"sum_hessian":[1.4150989E3,1.2611224E3,1.5397647E2,5.7891144E1,1.2032313E3,1.1457034E2,3.9406128E1,5.3341434E1,1.1498899E3,1.2389991E0,1.13331345E2,1.0709473E1,2.8696655E1],"tree_param":{"num_deleted":"0","num_feature":"5670","num_nodes":"13","size_leaf_vector":"1"}},{"base_weights":[1.6994128E-2,6.420828E-2,-4.2543985E-2,6.2359095E-2,-9.703049E-2,5.9881862E-2,-7.448917E-3],"categories":[],"categories_nodes":[],"categories_segments":[],"categories_sizes":[],"default_left":[0,0,0,0,0,0,0],"id":52,"left_children":[1,-1,3,-1,5,-1,-1],"loss_changes":[1.0740833E2,0E0,9.553488E1,0E0,8.792683E1,0E0,0E0],"parents":[2147483647,0,0,2,2,4,4],"right_children":[2,-1,4,-1,6,-1,-1],"split_conditions":[9.80871E-1,6.420828E-2,9.856847E-1,6.2359095E-2,9.947704E-1,5.9881862E-2,-7.448917E-3],"split_indices":[5654,0,5644,0,5639,0,0],"split_type":[0,0,0,0,0,0,0],"sum_hessian":[1.4194321E3,6.238997E1,1.3570422E3,5.3601234E1,1.3034409E3,4.8931866E1,1.2545092E3],"tree_param":{"num_deleted":"0","num_feature":"5670","num_nodes":"7","size_leaf_vector":"1"}},{"base_weights":[1.7427592E-2,6.0168024E-2,-3.9315365E-2,6.0934473E-2,-9.0660684E-2,2.809473E-2,-9.95059E-3],"categories":[],"categories_nodes":[],"categories_segments":[],"categories_sizes":[],"default_left":[0,0,0,0,0,0,0],"id":53,"left_children":[1,-1,3,-1,5,-1,-1],"loss_changes":[9.675009E1,0E0,8.859665E1,0E0,9.3357445E1,0E0,0E0],"parents":[2147483647,0,0,2,2,4,4],"right_children":[2,-1,4,-1,6,-1,-1],"split_conditions":[9.956367E-1,6.0168024E-2,9.856847E-1,6.0934473E-2,-1.240918E0,2.809473E-2,-9.95059E-3],"split_indices":[5640,0,5644,0,1,0,0],"split_type":[0,0,0,0,0,0,0],"sum_hessian":[1.4334521E3,6.41506E1,1.3693016E3,5.2282585E1,1.317019E3,1.8651462E2,1.1305044E3],"tree_param":{"num_deleted":"0","num_feature":"5670","num_nodes":"7","size_leaf_vector":"1"}},{"base_weights":[1.480824E-2,6.0176868E-2,-3.9645933E-2,5.727739E-2,-9.469203E-2,1.7257912E-2,-1.2846109E-2],"categories":[],"categories_nodes":[],"categories_segments":[],"categories_sizes":[],"default_left":[0,0,0,0,0,0,0],"id":54,"left_children":[1,-1,3,-1,5,-1,-1],"loss_changes":[9.084992E1,0E0,8.7519585E1,0E0,9.164507E1,0E0,0E0],"parents":[2147483647,0,0,2,2,4,4],"right_children":[2,-1,4,-1,6,-1,-1],"split_conditions":[9.976283E-1,6.0176868E-2,9.944942E-1,5.727739E-2,-1.0780951E0,1.7257912E-2,-1.2846109E-2],"split_indices":[5652,0,5638,0,1,0,0],"split_type":[0,0,0,0,0,0,0],"sum_hessian":[1.39909E3,5.9977207E1,1.3391128E3,5.803489E1,1.2810779E3,3.4456375E2,9.3651416E2],"tree_param":{"num_deleted":"0","num_feature":"5670","num_nodes":"7","size_leaf_vector":"1"}},{"base_weights":[3.823913E-2,2.7041715E-1,-2.3637383E-1,4.6163288E-1,-1.3102177E-2,6.028041E-2,-3.0465117E-1,2.7496988E-2,1.9014074E-3,6.9890814E-3,-3.182029E-2,-3.0027134E-3,-3.4108825E-2],"categories":[],"categories_nodes":[],"categories_segments":[],"categories_sizes":[],"default_left":[0,0,0,0,0,0,0,0,0,0,0,0,0],"id":55,"left_children":[1,3,5,7,9,-1,11,-1,-1,-1,-1,-1,-1],"loss_changes":[8.9908844E1,4.1481438E1,6.405461E1,1.6990677E1,2.9632282E1,0E0,5.6929688E1,0E0,0E0,0E0,0E0,0E0,0E0],"parents":[2147483647,0,0,1,1,2,2,3,3,4,4,6,6],"right_children":[2,4,6,8,10,-1,12,-1,-1,-1,-1,-1,-1],"split_conditions":[2.00001E0,7.0098907E-1,9.7910494E-1,2.00001E0,2.00001E0,6.028041E-2,-3.8609758E-1,2.7496988E-2,1.9014074E-3,6.9890814E-3,-3.182029E-2,-3.0027134E-3,-3.4108825E-2],"split_indices":[5645,2,5661,5661,5658,0,1,0,0,0,0,0,0],"split_type":[0,0,0,0,0,0,0,0,0,0,0,0,0],"sum_hessian":[1.4070763E3,7.62657E2,6.444194E2,4.5511877E2,3.075382E2,2.7937746E1,6.164816E2,3.7604333E2,7.907543E1,2.477687E2,5.9769493E1,3.753182E2,2.411634E2],"tree_param":{"num_deleted":"0","num_feature":"5670","num_nodes":"13","size_leaf_vector":"1"}},{"base_weights":[1.4419123E-2,5.9410114E-2,-4.141951E-2,5.908239E-2,-9.62537E-2,5.7003587E-2,-7.342768E-3],"categories":[],"categories_nodes":[],"categories_segments":[],"categories_sizes":[],"default_left":[0,0,0,0,0,0,0],"id":56,"left_children":[1,-1,3,-1,5,-1,-1],"loss_changes":[9.2279045E1,0E0,9.010575E1,0E0,8.063349E1,0E0,0E0],"parents":[2147483647,0,0,2,2,4,4],"right_children":[2,-1,4,-1,6,-1,-1],"split_conditions":[9.8498964E-1,5.9410114E-2,9.921584E-1,5.908239E-2,9.944942E-1,5.7003587E-2,-7.342768E-3],"split_indices":[5661,0,5650,0,5638,0,0],"split_type":[0,0,0,0,0,0,0],"sum_hessian":[1.4035521E3,6.2436993E1,1.3411151E3,5.6145752E1,1.2849694E3,4.9177128E1,1.2357922E3],"tree_param":{"num_deleted":"0","num_feature":"5670","num_nodes":"7","size_leaf_vector":"1"}},{"base_weights":[-3.6912682E-3,6.0464602E-2,-5.5411834E-2,6.0231842E-2,-1.0487582E-1,5.8981426E-2,-7.6566474E-3],"categories":[],"categories_nodes":[],"categories_segments":[],"categories_sizes":[],"default_left":[0,0,0,0,0,0,0],"id":57,"left_children":[1,-1,3,-1,5,-1,-1],"loss_changes":[8.656496E1,0E0,8.267139E1,0E0,7.92965E1,0E0,0E0],"parents":[2147483647,0,0,2,2,4,4],"right_children":[2,-1,4,-1,6,-1,-1],"split_conditions":[9.944942E-1,6.0464602E-2,9.897155E-1,6.0231842E-2,9.976283E-1,5.8981426E-2,-7.6566474E-3],"split_indices":[5639,0,5644,0,5652,0,0],"split_type":[0,0,0,0,0,0,0],"sum_hessian":[1.3785621E3,5.4924835E1,1.3236373E3,4.859793E1,1.2750393E3,4.4818737E1,1.2302206E3],"tree_param":{"num_deleted":"0","num_feature":"5670","num_nodes":"7","size_leaf_vector":"1"}},{"base_weights":[-1.25664845E-2,2.7238402E-1,-2.3990569E-1,5.994243E-2,1.7523499E-1,6.768032E-2,-3.015343E-1,1.8716516E-2,-5.5112136E-3,6.283754E-2,-1.7696587E-2],"categories":[],"categories_nodes":[],"categories_segments":[],"categories_sizes":[],"default_left":[0,0,0,0,0,0,0,0,0,0,0],"id":58,"left_children":[1,3,5,-1,7,-1,9,-1,-1,-1,-1],"loss_changes":[8.7954735E1,5.3764923E1,7.4690994E1,0E0,3.1180006E1,0E0,6.0063316E1,0E0,0E0,0E0,0E0],"parents":[2147483647,0,0,1,1,2,2,4,4,6,6],"right_children":[2,4,6,-1,8,-1,10,-1,-1,-1,-1],"split_conditions":[2.00001E0,9.811437E-1,9.911367E-1,5.994243E-2,-3.8609758E-1,6.768032E-2,9.713476E-1,1.8716516E-2,-5.5112136E-3,6.283754E-2,-1.7696587E-2],"split_indices":[5663,5663,5664,0,1,0,5654,0,0,0,0],"split_type":[0,0,0,0,0,0,0,0,0,0,0],"sum_hessian":[1.3547736E3,6.0088184E2,7.538917E2,5.531631E1,5.4556555E2,2.683962E1,7.270521E2,3.213331E2,2.242324E2,2.2468204E1,7.045839E2],"tree_param":{"num_deleted":"0","num_feature":"5670","num_nodes":"11","size_leaf_vector":"1"}},{"base_weights":[1.3823077E-2,1.4069831E-1,-4.6297732E-1,6.087933E-2,8.486514E-2,5.484384E-2,-5.186533E-1,1.6260296E-2,-6.64839E-3,5.596275E-2,-2.8283093E-2],"categories":[],"categories_nodes":[],"categories_segments":[],"categories_sizes":[],"default_left":[1,0,0,0,0,0,0,0,0,0,0],"id":59,"left_children":[1,3,5,-1,7,-1,9,-1,-1,-1,-1],"loss_changes":[8.373376E1,6.5475426E1,2.6056309E1,0E0,5.461107E1,0E0,2.2601242E1,0E0,0E0,0E0,0E0],"parents":[2147483647,0,0,1,1,2,2,4,4,6,6],"right_children":[2,4,6,-1,8,-1,10,-1,-1,-1,-1],"split_conditions":[9.967817E-1,9.967817E-1,9.715327E-1,6.087933E-2,2.00001E0,5.484384E-2,9.303588E-1,1.6260296E-2,-6.64839E-3,5.596275E-2,-2.8283093E-2],"split_indices":[5641,5641,5644,0,5663,0,5654,0,0,0,0],"split_type":[0,0,0,0,0,0,0,0,0,0,0],"sum_hessian":[1.3815802E3,1.0922126E3,2.8936755E2,5.220971E1,1.0400029E3,8.94382E0,2.8042374E2,4.9432306E2,5.456799E2,6.809804E0,2.7361395E2],"tree_param":{"num_deleted":"0","num_feature":"5670","num_nodes":"11","size_leaf_vector":"1"}},{"base_weights":[7.4561834E-3,6.011774E-2,-4.4263426E-2,5.8274943E-2,-9.4645E-2,1.407583E-2,-1.2257765E-2],"categories":[],"categories_nodes":[],"categories_segments":[],"categories_sizes":[],"default_left":[0,0,0,0,0,0,0],"id":60,"left_children":[1,-1,3,-1,5,-1,-1],"loss_changes":[8.584678E1,0E0,8.111018E1,0E0,7.246182E1,0E0,0E0],"parents":[2147483647,0,0,2,2,4,4],"right_children":[2,-1,4,-1,6,-1,-1],"split_conditions":[9.986464E-1,6.011774E-2,9.967817E-1,5.8274943E-2,2.00001E0,1.407583E-2,-1.2257765E-2],"split_indices":[5648,0,5640,0,5668,0,0],"split_type":[0,0,0,0,0,0,0],"sum_hessian":[1.3844476E3,5.6133575E1,1.3283141E3,5.1700348E1,1.2766138E3,3.6426288E2,9.123509E2],"tree_param":{"num_deleted":"0","num_feature":"5670","num_nodes":"7","size_leaf_vector":"1"}},{"base_weights":[-1.6758343E-3,6.2758856E-2,-5.436686E-2,5.836597E-2,-1.0301487E-1,2.6953423E-2,-1.0414897E-2],"categories":[],"categories_nodes":[],"categories_segments":[],"categories_sizes":[],"default_left":[0,0,0,0,0,0,0],"id":61,"left_children":[1,-1,3,-1,5,-1,-1],"loss_changes":[8.936763E1,0E0,7.715396E1,0E0,8.454958E1,0E0,0E0],"parents":[2147483647,0,0,2,2,4,4],"right_children":[2,-1,4,-1,6,-1,-1],"split_conditions":[9.993466E-1,6.2758856E-2,9.811437E-1,5.836597E-2,-1.240918E0,2.6953423E-2,-1.0414897E-2],"split_indices":[5656,0,5663,0,1,0,0],"split_type":[0,0,0,0,0,0,0],"sum_hessian":[1.348225E3,5.279367E1,1.2954313E3,4.8209473E1,1.2472218E3,1.7469434E2,1.0725275E3],"tree_param":{"num_deleted":"0","num_feature":"5670","num_nodes":"7","size_leaf_vector":"1"}},{"base_weights":[3.8545515E-2,5.789534E-2,-9.27119E-3,5.9470296E-2,-5.425929E-2,6.3372366E-2,-4.639493E-3],"categories":[],"categories_nodes":[],"categories_segments":[],"categories_sizes":[],"default_left":[0,0,0,0,0,0,0],"id":62,"left_children":[1,-1,3,-1,5,-1,-1],"loss_changes":[7.3315E1,0E0,7.077195E1,0E0,6.4568306E1,0E0,0E0],"parents":[2147483647,0,0,2,2,4,4],"right_children":[2,-1,4,-1,6,-1,-1],"split_conditions":[9.8498964E-1,5.789534E-2,9.9362093E-1,5.9470296E-2,9.999884E-1,6.3372366E-2,-4.639493E-3],"split_indices":[5661,0,5639,0,5662,0,0],"split_type":[0,0,0,0,0,0,0],"sum_hessian":[1.3658083E3,5.4613197E1,1.3111951E3,4.597021E1,1.2652249E3,3.441051E1,1.2308143E3],"tree_param":{"num_deleted":"0","num_feature":"5670","num_nodes":"7","size_leaf_vector":"1"}},{"base_weights":[1.9908475E-3,5.790713E-2,-4.6942756E-2,5.7663124E-2,-9.640821E-2,5.877172E-2,-7.105451E-3],"categories":[],"categories_nodes":[],"categories_segments":[],"categories_sizes":[],"default_left":[0,0,0,0,0,0,0],"id":63,"left_children":[1,-1,3,-1,5,-1,-1],"loss_changes":[7.629692E1,0E0,7.676162E1,0E0,7.235272E1,0E0,0E0],"parents":[2147483647,0,0,2,2,4,4],"right_children":[2,-1,4,-1,6,-1,-1],"split_conditions":[9.9196273E-1,5.790713E-2,9.956367E-1,5.7663124E-2,9.924835E-1,5.877172E-2,-7.105451E-3],"split_indices":[5650,0,5640,0,5644,0,0],"split_type":[0,0,0,0,0,0,0],"sum_hessian":[1.3437E3,5.32645E1,1.2904355E3,4.967411E1,1.2407614E3,4.1675434E1,1.1990859E3],"tree_param":{"num_deleted":"0","num_feature":"5670","num_nodes":"7","size_leaf_vector":"1"}},{"base_weights":[1.7877485E-3,5.7359148E-2,-4.7339004E-2,5.7120886E-2,-9.458682E-2,5.8995154E-2,-6.9173756E-3],"categories":[],"categories_nodes":[],"categories_segments":[],"categories_sizes":[],"default_left":[0,0,0,0,0,0,0],"id":64,"left_children":[1,-1,3,-1,5,-1,-1],"loss_changes":[7.5246315E1,0E0,7.202987E1,0E0,6.8903145E1,0E0,0E0],"parents":[2147483647,0,0,2,2,4,4],"right_children":[2,-1,4,-1,6,-1,-1],"split_conditions":[9.9196273E-1,5.7359148E-2,9.967817E-1,5.7120886E-2,9.924835E-1,5.8995154E-2,-6.9173756E-3],"split_indices":[5650,0,5640,0,5644,0,0],"split_type":[0,0,0,0,0,0,0],"sum_hessian":[1.3323452E3,5.349982E1,1.2788455E3,4.743709E1,1.2314083E3,3.9509224E1,1.191899E3],"tree_param":{"num_deleted":"0","num_feature":"5670","num_nodes":"7","size_leaf_vector":"1"}},{"base_weights":[-7.7994317E-3,2.2406399E-1,-2.9166296E-1,4.2192042E-1,-4.7125615E-2,6.002906E-2,-3.48059E-1,2.5442136E-2,1.3101689E-3,5.455111E-3,-3.4317225E-2,5.6032162E-2,-1.9831307E-2],"categories":[],"categories_nodes":[],"categories_segments":[],"categories_sizes":[],"default_left":[0,0,0,0,0,0,0,0,0,0,0,0,0],"id":65,"left_children":[1,3,5,7,9,-1,11,-1,-1,-1,-1,-1,-1],"loss_changes":[8.948419E1,4.020835E1,5.1993E1,1.4816818E1,3.1797842E1,0E0,4.2703674E1,0E0,0E0,0E0,0E0,0E0,0E0],"parents":[2147483647,0,0,1,1,2,2,3,3,4,4,6,6],"right_children":[2,4,6,8,10,-1,12,-1,-1,-1,-1,-1,-1],"split_conditions":[2.00001E0,7.0098907E-1,9.967817E-1,2.00001E0,2.00001E0,6.002906E-2,9.7910494E-1,2.5442136E-2,1.3101689E-3,5.455111E-3,-3.4317225E-2,5.6032162E-2,-1.9831307E-2],"split_indices":[5645,2,5641,5661,5656,0,5661,0,0,0,0,0,0],"split_type":[0,0,0,0,0,0,0,0,0,0,0,0,0],"sum_hessian":[1.356487E3,7.4661005E2,6.09877E2,4.314007E2,3.1520935E2,2.1036758E1,5.888403E2,3.5314758E2,7.825311E1,2.5417534E2,6.1034004E1,1.7722734E1,5.7111755E2],"tree_param":{"num_deleted":"0","num_feature":"5670","num_nodes":"13","size_leaf_vector":"1"}},{"base_weights":[3.1036632E-2,6.173393E-2,-1.3193246E-2,5.556078E-2,-6.119308E-2,5.798928E-2,-5.2116676E-3],"categories":[],"categories_nodes":[],"categories_segments":[],"categories_sizes":[],"default_left":[0,0,0,0,0,0,0],"id":66,"left_children":[1,-1,3,-1,5,-1,-1],"loss_changes":[7.258388E1,0E0,7.090655E1,0E0,6.637192E1,0E0,0E0],"parents":[2147483647,0,0,2,2,4,4],"right_children":[2,-1,4,-1,6,-1,-1],"split_conditions":[9.993466E-1,6.173393E-2,9.944942E-1,5.556078E-2,9.9618006E-1,5.798928E-2,-5.2116676E-3],"split_indices":[5656,0,5638,0,5652,0,0],"split_type":[0,0,0,0,0,0,0],"sum_hessian":[1.3591584E3,4.682351E1,1.312335E3,5.2282993E1,1.260052E3,4.1500847E1,1.2185511E3],"tree_param":{"num_deleted":"0","num_feature":"5670","num_nodes":"7","size_leaf_vector":"1"}},{"base_weights":[-3.055453E-2,5.959471E-2,-7.6216765E-2,5.5222314E-2,-1.2334603E-1,2.3981942E-2,-1.1164873E-2],"categories":[],"categories_nodes":[],"categories_segments":[],"categories_sizes":[],"default_left":[0,0,0,0,0,0,0],"id":67,"left_children":[1,-1,3,-1,5,-1,-1],"loss_changes":[7.441802E1,0E0,7.167756E1,0E0,7.476631E1,0E0,0E0],"parents":[2147483647,0,0,2,2,4,4],"right_children":[2,-1,4,-1,6,-1,-1],"split_conditions":[9.8199344E-1,5.959471E-2,9.944942E-1,5.5222314E-2,-1.240918E0,2.3981942E-2,-1.1164873E-2],"split_indices":[5654,0,5638,0,1,0,0],"split_type":[0,0,0,0,0,0,0],"sum_hessian":[1.3312421E3,4.6500774E1,1.2847413E3,4.7942093E1,1.2367992E3,1.749096E2,1.0618895E3],"tree_param":{"num_deleted":"0","num_feature":"5670","num_nodes":"7","size_leaf_vector":"1"}},{"base_weights":[-4.168371E-3,6.1220266E-2,-4.887326E-2,5.4897167E-2,-9.7419284E-2,5.7265908E-2,-7.1218424E-3],"categories":[],"categories_nodes":[],"categories_segments":[],"categories_sizes":[],"default_left":[0,0,0,0,0,0,0],"id":68,"left_children":[1,-1,3,-1,5,-1,-1],"loss_changes":[7.311355E1,0E0,7.1682304E1,0E0,6.9274605E1,0E0,0E0],"parents":[2147483647,0,0,2,2,4,4],"right_children":[2,-1,4,-1,6,-1,-1],"split_conditions":[1E0,6.1220266E-2,9.9067914E-1,5.4897167E-2,9.976283E-1,5.7265908E-2,-7.1218424E-3],"split_indices":[5658,0,5638,0,5652,0,0],"split_type":[0,0,0,0,0,0,0],"sum_hessian":[1.330201E3,4.5235146E1,1.2849658E3,5.07845E1,1.2341814E3,4.1785416E1,1.192396E3],"tree_param":{"num_deleted":"0","num_feature":"5670","num_nodes":"7","size_leaf_vector":"1"}},{"base_weights":[2.3490794E-2,1.8243329E-1,-3.0977362E-1,3.0921933E-1,-3.1558067E-1,6.6189125E-2,-3.618462E-1,-2.4468066E-2,1.904146E-2,5.40873E-2,-1.9746093E-2,1.3075686E-2,-2.473793E-2],"categories":[],"categories_nodes":[],"categories_segments":[],"categories_sizes":[],"default_left":[0,1,0,0,0,0,0,0,0,0,0,0,0],"id":69,"left_children":[1,3,5,7,9,-1,11,-1,-1,-1,-1,-1,-1],"loss_changes":[7.020387E1,5.68213E1,3.7020515E1,4.1235466E1,2.08301E1,0E0,3.4676765E1,0E0,0E0,0E0,0E0,0E0,0E0],"parents":[2147483647,0,0,1,1,2,2,3,3,4,4,6,6],"right_children":[2,4,6,8,10,-1,12,-1,-1,-1,-1,-1,-1],"split_conditions":[2.00001E0,9.986464E-1,9.812971E-1,2.00001E0,9.8367894E-1,6.6189125E-2,-1.240918E0,-2.4468066E-2,1.904146E-2,5.40873E-2,-1.9746093E-2,1.3075686E-2,-2.473793E-2],"split_indices":[5661,5648,5664,5646,5661,0,1,0,0,0,0,0,0],"split_type":[0,0,0,0,0,0,0,0,0,0,0,0,0],"sum_hessian":[1.3224948E3,8.9610016E2,4.2639462E2,7.148745E2,1.8122563E2,1.1981227E1,4.144134E2,5.7993557E1,6.568809E2,8.651267E0,1.7257437E2,7.24445E1,3.4196887E2],"tree_param":{"num_deleted":"0","num_feature":"5670","num_nodes":"13","size_leaf_vector":"1"}},{"base_weights":[-2.4272136E-2,5.6661606E-2,-7.196402E-2,5.0992597E-2,-5.2088284E-1,5.889312E-2,1.1355933E-4,4.8356906E-2,-2.8514659E-2],"categories":[],"categories_nodes":[],"categories_segments":[],"categories_sizes":[],"default_left":[0,0,1,0,0,0,0,0,0],"id":70,"left_children":[1,-1,3,5,7,-1,-1,-1,-1],"loss_changes":[7.3156624E1,0E0,7.040772E1,5.485E1,2.0949516E1,0E0,0E0,0E0,0E0],"parents":[2147483647,0,0,2,2,3,3,4,4],"right_children":[2,-1,4,6,8,-1,-1,-1,-1],"split_conditions":[9.9196273E-1,5.6661606E-2,9.967817E-1,9.92158E-1,9.444486E-1,5.889312E-2,1.1355933E-4,4.8356906E-2,-2.8514659E-2],"split_indices":[5650,0,5641,5641,5663,0,0,0,0],"split_type":[0,0,0,0,0,0,0,0,0],"sum_hessian":[1.3234222E3,5.093626E1,1.272486E3,9.997629E2,2.7272314E2,3.9908554E1,9.598543E2,7.8044114E0,2.6491873E2],"tree_param":{"num_deleted":"0","num_feature":"5670","num_nodes":"9","size_leaf_vector":"1"}},{"base_weights":[-1.0851626E-2,5.719615E-2,-5.6698773E-2,5.7905704E-2,-9.912894E-2,5.4403152E-2,-7.069196E-3],"categories":[],"categories_nodes":[],"categories_segments":[],"categories_sizes":[],"default_left":[0,0,0,0,0,0,0],"id":71,"left_children":[1,-1,3,-1,5,-1,-1],"loss_changes":[6.8730774E1,0E0,6.451509E1,0E0,6.0815926E1,0E0,0E0],"parents":[2147483647,0,0,2,2,4,4],"right_children":[2,-1,4,-1,6,-1,-1],"split_conditions":[9.8498964E-1,5.719615E-2,9.7727996E-1,5.7905704E-2,9.944942E-1,5.4403152E-2,-7.069196E-3],"split_indices":[5661,0,5663,0,5638,0,0],"split_type":[0,0,0,0,0,0,0],"sum_hessian":[1.2969163E3,4.806909E1,1.2488472E3,4.0736176E1,1.208111E3,4.0164387E1,1.1679467E3],"tree_param":{"num_deleted":"0","num_feature":"5670","num_nodes":"7","size_leaf_vector":"1"}},{"base_weights":[-8.476844E-3,5.768164E-2,-5.220089E-2,5.8419425E-2,-9.250816E-2,1.1923244E-3,-2.6245786E-2],"categories":[],"categories_nodes":[],"categories_segments":[],"categories_sizes":[],"default_left":[0,0,0,0,1,0,0],"id":72,"left_children":[1,-1,3,-1,5,-1,-1],"loss_changes":[6.745694E1,0E0,6.3094246E1,0E0,6.254908E1,0E0,0E0],"parents":[2147483647,0,0,2,2,4,4],"right_children":[2,-1,4,-1,6,-1,-1],"split_conditions":[9.986464E-1,5.768164E-2,9.924835E-1,5.8419425E-2,9.967817E-1,1.1923244E-3,-2.6245786E-2],"split_indices":[5648,0,5644,0,5641,0,0],"split_type":[0,0,0,0,0,0,0],"sum_hessian":[1.3264652E3,4.6634598E1,1.2798307E3,3.9491226E1,1.2403394E3,9.7828345E2,2.62056E2],"tree_param":{"num_deleted":"0","num_feature":"5670","num_nodes":"7","size_leaf_vector":"1"}},{"base_weights":[-5.722337E-3,5.8359183E-2,-5.132717E-2,5.975408E-2,-9.2381865E-2,2.362721E-2,-9.139182E-3],"categories":[],"categories_nodes":[],"categories_segments":[],"categories_sizes":[],"default_left":[0,0,0,0,0,0,0],"id":73,"left_children":[1,-1,3,-1,5,-1,-1],"loss_changes":[6.915053E1,0E0,6.3829475E1,0E0,6.1794765E1,0E0,0E0],"parents":[2147483647,0,0,2,2,4,4],"right_children":[2,-1,4,-1,6,-1,-1],"split_conditions":[9.986464E-1,5.8359183E-2,9.993466E-1,5.975408E-2,-1.240918E0,2.362721E-2,-9.139182E-3],"split_indices":[5648,0,5656,0,1,0,0],"split_type":[0,0,0,0,0,0,0],"sum_hessian":[1.2916768E3,4.6880447E1,1.2447963E3,3.8271915E1,1.2065244E3,1.6541145E2,1.0411129E3],"tree_param":{"num_deleted":"0","num_feature":"5670","num_nodes":"7","size_leaf_vector":"1"}},{"base_weights":[-1.0736965E-2,5.7464063E-2,-5.4275382E-2,5.6773085E-2,-9.569523E-2,5.6200054E-2,-6.786026E-3],"categories":[],"categories_nodes":[],"categories_segments":[],"categories_sizes":[],"default_left":[0,0,0,0,0,0,0],"id":74,"left_children":[1,-1,3,-1,5,-1,-1],"loss_changes":[6.6051056E1,0E0,6.22642E1,0E0,5.9752735E1,0E0,0E0],"parents":[2147483647,0,0,2,2,4,4],"right_children":[2,-1,4,-1,6,-1,-1],"split_conditions":[9.947704E-1,5.7464063E-2,9.715327E-1,5.6773085E-2,9.976283E-1,5.6200054E-2,-6.786026E-3],"split_indices":[5639,0,5663,0,5652,0,0],"split_type":[0,0,0,0,0,0,0],"sum_hessian":[1.3066185E3,4.580548E1,1.2608131E3,4.1003403E1,1.2198097E3,3.7387047E1,1.1824226E3],"tree_param":{"num_deleted":"0","num_feature":"5670","num_nodes":"7","size_leaf_vector":"1"}},{"base_weights":[1.555407E-2,5.8747627E-2,-2.5341352E-2,5.636994E-2,-6.59766E-2,6.1961357E-3,-1.584424E-2],"categories":[],"categories_nodes":[],"categories_segments":[],"categories_sizes":[],"default_left":[0,0,0,0,0,0,0],"id":75,"left_children":[1,-1,3,-1,5,-1,-1],"loss_changes":[6.1998577E1,0E0,5.9081474E1,0E0,5.8195362E1,0E0,0E0],"parents":[2147483647,0,0,2,2,4,4],"right_children":[2,-1,4,-1,6,-1,-1],"split_conditions":[9.80871E-1,5.8747627E-2,9.7727996E-1,5.636994E-2,-2.639804E-1,6.1961357E-3,-1.584424E-2],"split_indices":[5654,0,5663,0,1,0,0],"split_type":[0,0,0,0,0,0,0],"sum_hessian":[1.3027316E3,4.3051685E1,1.2596799E3,4.1443165E1,1.2182368E3,6.936272E2,5.2460956E2],"tree_param":{"num_deleted":"0","num_feature":"5670","num_nodes":"7","size_leaf_vector":"1"}},{"base_weights":[2.649319E-2,5.8088776E-2,-1.4628149E-2,5.7663888E-2,-5.599733E-2,5.6070924E-2,-4.7565787E-3],"categories":[],"categories_nodes":[],"categories_segments":[],"categories_sizes":[],"default_left":[0,0,0,0,0,0,0],"id":76,"left_children":[1,-1,3,-1,5,-1,-1],"loss_changes":[6.1211964E1,0E0,6.1050644E1,0E0,5.6369865E1,0E0,0E0],"parents":[2147483647,0,0,2,2,4,4],"right_children":[2,-1,4,-1,6,-1,-1],"split_conditions":[9.986464E-1,5.8088776E-2,9.924835E-1,5.7663888E-2,9.9424136E-1,5.6070924E-2,-4.7565787E-3],"split_indices":[5648,0,5644,0,5640,0,0],"split_type":[0,0,0,0,0,0,0],"sum_hessian":[1.3066855E3,4.433145E1,1.2623541E3,4.1723095E1,1.220631E3,3.7848877E1,1.1827821E3],"tree_param":{"num_deleted":"0","num_feature":"5670","num_nodes":"7","size_leaf_vector":"1"}},{"base_weights":[2.847113E-2,1.3797702E-1,-3.7443584E-1,-3.498531E-1,2.6042914E-1,-6.046884E-1,1.5660845E-2,1.7182032E-2,-3.047415E-2,1.8681426E-2,-1.0282718E-2,4.4895414E-2,-3.3023696E-2,1.575304E-2,-1.3871509E-2],"categories":[],"categories_nodes":[],"categories_segments":[],"categories_sizes":[],"default_left":[1,0,0,0,1,0,0,0,0,0,0,0,0,0,0],"id":77,"left_children":[1,3,5,7,9,11,13,-1,-1,-1,-1,-1,-1,-1,-1],"loss_changes":[5.7190945E1,6.103174E1,2.495008E1,3.726007E1,4.3184906E1,1.548143E1,9.269794E0,0E0,0E0,0E0,0E0,0E0,0E0,0E0,0E0],"parents":[2147483647,0,0,1,1,2,2,3,3,4,4,5,5,6,6],"right_children":[2,4,6,8,10,12,14,-1,-1,-1,-1,-1,-1,-1,-1],"split_conditions":[9.8199344E-1,2.00001E0,9.618535E-1,-1.2458591E0,9.986464E-1,9.837996E-1,9.164859E-1,1.7182032E-2,-3.047415E-2,1.8681426E-2,-1.0282718E-2,4.4895414E-2,-3.3023696E-2,1.575304E-2,-1.3871509E-2],"split_indices":[5654,5646,0,1,5648,5650,1,0,0,0,0,0,0,0,0],"split_type":[0,0,0,0,0,0,0,0,0,0,0,0,0,0,0],"sum_hessian":[1.2935183E3,1.0180559E3,2.754624E2,2.0354843E2,8.1450745E2,1.7286244E2,1.0259996E2,5.5209255E1,1.4833917E2,6.5575415E2,1.5875328E2,5.313226E0,1.6754921E2,5.0866886E1,5.173307E1],"tree_param":{"num_deleted":"0","num_feature":"5670","num_nodes":"15","size_leaf_vector":"1"}},{"base_weights":[2.6431752E-2,5.8213454E-2,-1.3675452E-2,5.6811005E-2,-5.2306496E-2,5.9080034E-2,-4.3678745E-3],"categories":[],"categories_nodes":[],"categories_segments":[],"categories_sizes":[],"default_left":[0,0,0,0,0,0,0],"id":78,"left_children":[1,-1,3,-1,5,-1,-1],"loss_changes":[5.8426247E1,0E0,5.4848022E1,0E0,5.1794426E1,0E0,0E0],"parents":[2147483647,0,0,2,2,4,4],"right_children":[2,-1,4,-1,6,-1,-1],"split_conditions":[9.8625445E-1,5.8213454E-2,9.944942E-1,5.6811005E-2,9.980079E-1,5.9080034E-2,-4.3678745E-3],"split_indices":[5641,0,5639,0,5656,0,0],"split_type":[0,0,0,0,0,0,0],"sum_hessian":[1.2757368E3,4.2090263E1,1.2336466E3,3.8628223E1,1.1950183E3,3.157452E1,1.1634438E3],"tree_param":{"num_deleted":"0","num_feature":"5670","num_nodes":"7","size_leaf_vector":"1"}},{"base_weights":[8.61027E-3,5.3893324E-2,-3.252135E-2,5.8511276E-2,-6.9466524E-2,5.5857208E-2,-5.2894573E-3],"categories":[],"categories_nodes":[],"categories_segments":[],"categories_sizes":[],"default_left":[0,0,0,0,0,0,0],"id":79,"left_children":[1,-1,3,-1,5,-1,-1],"loss_changes":[5.6307224E1,0E0,5.470267E1,0E0,5.160757E1,0E0,0E0],"parents":[2147483647,0,0,2,2,4,4],"right_children":[2,-1,4,-1,6,-1,-1],"split_conditions":[9.944942E-1,5.3893324E-2,9.980079E-1,5.8511276E-2,9.811437E-1,5.5857208E-2,-5.2894573E-3],"split_indices":[5638,0,5656,0,5663,0,0],"split_type":[0,0,0,0,0,0,0],"sum_hessian":[1.2752124E3,4.59267E1,1.2292856E3,3.5183136E1,1.1941025E3,3.405885E1,1.1600437E3],"tree_param":{"num_deleted":"0","num_feature":"5670","num_nodes":"7","size_leaf_vector":"1"}},{"base_weights":[1.9211892E-2,5.769211E-2,-2.0487458E-2,5.5413492E-2,-6.1192054E-2,5.7610553E-2,-4.9073664E-3],"categories":[],"categories_nodes":[],"categories_segments":[],"categories_sizes":[],"default_left":[0,0,0,0,0,0,0],"id":80,"left_children":[1,-1,3,-1,5,-1,-1],"loss_changes":[5.764775E1,0E0,5.6727863E1,0E0,5.357239E1,0E0,0E0],"parents":[2147483647,0,0,2,2,4,4],"right_children":[2,-1,4,-1,6,-1,-1],"split_conditions":[9.924835E-1,5.769211E-2,9.921584E-1,5.5413492E-2,9.92158E-1,5.7610553E-2,-4.9073664E-3],"split_indices":[5644,0,5650,0,5641,0,0],"split_type":[0,0,0,0,0,0,0],"sum_hessian":[1.2750039E3,4.1764774E1,1.2332391E3,4.1469635E1,1.1917695E3,3.3805733E1,1.1579639E3],"tree_param":{"num_deleted":"0","num_feature":"5670","num_nodes":"7","size_leaf_vector":"1"}},{"base_weights":[1.6345879E-2,8.278635E-2,-6.284991E-1,5.4634888E-2,4.5096904E-2,-4.686917E-2,-3.0751258E-1,5.4868825E-2,4.292874E-4,2.3371128E-2,-3.3108916E-2],"categories":[],"categories_nodes":[],"categories_segments":[],"categories_sizes":[],"default_left":[1,0,1,0,0,0,1,0,0,0,0],"id":81,"left_children":[1,3,5,-1,7,-1,9,-1,-1,-1,-1],"loss_changes":[5.4494633E1,4.3740677E1,1.1221203E1,0E0,4.268413E1,0E0,1.7152004E1,0E0,0E0,0E0,0E0],"parents":[2147483647,0,0,1,1,2,2,4,4,6,6],"right_children":[2,4,6,-1,8,-1,10,-1,-1,-1,-1],"split_conditions":[1E0,9.921584E-1,9.778345E-1,5.4634888E-2,9.8498964E-1,-4.686917E-2,9.921584E-1,5.4868825E-2,4.292874E-4,2.3371128E-2,-3.3108916E-2],"split_indices":[5660,5650,2,0,5661,0,5650,0,0,0,0],"split_type":[0,0,0,0,0,0,0,0,0,0,0],"sum_hessian":[1.2698894E3,1.1525962E3,1.17293236E2,3.9860798E1,1.1127355E3,5.8146763E1,5.9146473E1,3.5760735E1,1.0769747E3,1.8332218E1,4.0814255E1],"tree_param":{"num_deleted":"0","num_feature":"5670","num_nodes":"11","size_leaf_vector":"1"}},{"base_weights":[-1.4308171E-2,1.0028143E-1,-4.5012635E-1,5.705769E-2,5.7733987E-2,5.1949274E-2,-4.9750456E-1,2.653791E-2,-1.2152734E-3,-1.5942924E-2,-4.2609274E-2],"categories":[],"categories_nodes":[],"categories_segments":[],"categories_sizes":[],"default_left":[1,0,0,0,0,0,1,0,0,0,0],"id":82,"left_children":[1,3,5,-1,7,-1,9,-1,-1,-1,-1],"loss_changes":[6.32881E1,4.419435E1,1.9337025E1,0E0,3.752413E1,0E0,1.574707E1,0E0,0E0,0E0,0E0],"parents":[2147483647,0,0,1,1,2,2,4,4,6,6],"right_children":[2,4,6,-1,8,-1,10,-1,-1,-1,-1],"split_conditions":[9.967817E-1,9.967817E-1,9.993466E-1,5.705769E-2,-1.240918E0,5.1949274E-2,9.921584E-1,2.653791E-2,-1.2152734E-3,-1.5942924E-2,-4.2609274E-2],"split_indices":[5641,5641,5656,0,1,0,5650,0,0,0,0],"split_type":[0,0,0,0,0,0,0,0,0,0,0],"sum_hessian":[1.2637206E3,1.0013588E3,2.623617E2,3.7711464E1,9.636474E2,7.056875E0,2.5530482E2,1.4139644E2,8.222509E2,1.718684E2,8.343644E1],"tree_param":{"num_deleted":"0","num_feature":"5670","num_nodes":"11","size_leaf_vector":"1"}},{"base_weights":[2.9710643E-2,5.9115697E-2,-8.473429E-3,5.546065E-2,-4.4580366E-2,5.5806935E-2,-3.9888825E-3],"categories":[],"categories_nodes":[],"categories_segments":[],"categories_sizes":[],"default_left":[0,0,0,0,0,0,0],"id":83,"left_children":[1,-1,3,-1,5,-1,-1],"loss_changes":[5.6411827E1,0E0,4.997537E1,0E0,4.9132797E1,0E0,0E0],"parents":[2147483647,0,0,2,2,4,4],"right_children":[2,-1,4,-1,6,-1,-1],"split_conditions":[1E0,5.9115697E-2,9.976283E-1,5.546065E-2,9.811437E-1,5.5806935E-2,-3.9888825E-3],"split_indices":[5658,0,5652,0,5663,0,0],"split_type":[0,0,0,0,0,0,0],"sum_hessian":[1.2772552E3,3.9599525E1,1.2376558E3,3.7249565E1,1.2004062E3,3.3890022E1,1.1665162E3],"tree_param":{"num_deleted":"0","num_feature":"5670","num_nodes":"7","size_leaf_vector":"1"}},{"base_weights":[-4.357126E-3,5.833682E-2,-4.2445756E-2,5.5450942E-2,-7.946168E-2,5.4728724E-2,-5.8036516E-3],"categories":[],"categories_nodes":[],"categories_segments":[],"categories_sizes":[],"default_left":[0,0,0,0,0,0,0],"id":84,"left_children":[1,-1,3,-1,5,-1,-1],"loss_changes":[5.573085E1,0E0,5.1705746E1,0E0,5.0647034E1,0E0,0E0],"parents":[2147483647,0,0,2,2,4,4],"right_children":[2,-1,4,-1,6,-1,-1],"split_conditions":[1E0,5.833682E-2,9.947704E-1,5.5450942E-2,9.976283E-1,5.4728724E-2,-5.8036516E-3],"split_indices":[5658,0,5639,0,5652,0,0],"split_type":[0,0,0,0,0,0,0],"sum_hessian":[1.2487759E3,3.7853016E1,1.2109229E3,3.6277767E1,1.1746451E3,3.4129177E1,1.1405159E3],"tree_param":{"num_deleted":"0","num_feature":"5670","num_nodes":"7","size_leaf_vector":"1"}},{"base_weights":[1.3212441E-2,2.0785503E-1,-2.1026218E-1,-9.730144E-1,2.5037786E-1,6.0134448E-2,-2.632065E-1,3.282337E-2,-5.5675607E-2,1.665323E-2,-9.02866E-3,-2.3698865E-2,4.95344E-3],"categories":[],"categories_nodes":[],"categories_segments":[],"categories_sizes":[],"default_left":[0,0,0,0,1,0,0,0,0,0,0,0,0],"id":85,"left_children":[1,3,5,7,9,-1,11,-1,-1,-1,-1,-1,-1],"loss_changes":[5.4986588E1,3.422971E1,4.4389236E1,6.571718E0,2.3396626E1,0E0,4.3504494E1,0E0,0E0,0E0,0E0,0E0,0E0],"parents":[2147483647,0,0,1,1,2,2,3,3,4,4,6,6],"right_children":[2,4,6,8,10,-1,12,-1,-1,-1,-1,-1,-1],"split_conditions":[-3.8609758E-1,-1.7877623E0,9.7808665E-1,2.00001E0,9.967817E-1,6.0134448E-2,9.114736E-1,3.282337E-2,-5.5675607E-2,1.665323E-2,-9.02866E-3,-2.3698865E-2,4.95344E-3],"split_indices":[1,3,5662,2366,5641,0,0,0,0,0,0,0,0],"split_type":[0,0,0,0,0,0,0,0,0,0,0,0,0],"sum_hessian":[1.2611254E3,6.743395E2,5.867859E2,2.2216162E1,6.521233E2,1.9948471E1,5.668374E2,1.2697127E0,2.094645E1,5.4762335E2,1.04499916E2,3.5823236E2,2.0860506E2],"tree_param":{"num_deleted":"0","num_feature":"5670","num_nodes":"13","size_leaf_vector":"1"}},{"base_weights":[2.1361789E-2,5.738389E-2,-1.4762558E-2,5.486551E-2,-5.0758447E-2,5.6437816E-2,-4.186148E-3],"categories":[],"categories_nodes":[],"categories_segments":[],"categories_sizes":[],"default_left":[0,0,0,0,0,0,0],"id":86,"left_children":[1,-1,3,-1,5,-1,-1],"loss_changes":[5.091527E1,0E0,4.8438457E1,0E0,4.569049E1,0E0,0E0],"parents":[2147483647,0,0,2,2,4,4],"right_children":[2,-1,4,-1,6,-1,-1],"split_conditions":[9.8199344E-1,5.738389E-2,9.956367E-1,5.486551E-2,9.986464E-1,5.6437816E-2,-4.186148E-3],"split_indices":[5654,0,5640,0,5648,0,0],"split_type":[0,0,0,0,0,0,0],"sum_hessian":[1.2464669E3,3.738727E1,1.2090796E3,3.6435036E1,1.1726447E3,3.0443382E1,1.1422012E3],"tree_param":{"num_deleted":"0","num_feature":"5670","num_nodes":"7","size_leaf_vector":"1"}},{"base_weights":[5.127073E-3,5.6744445E-2,-3.170883E-2,5.3063966E-2,-6.9354594E-2,5.985117E-2,-5.0458577E-3],"categories":[],"categories_nodes":[],"categories_segments":[],"categories_sizes":[],"default_left":[0,0,0,0,0,0,0],"id":87,"left_children":[1,-1,3,-1,5,-1,-1],"loss_changes":[5.1755592E1,0E0,4.9466442E1,0E0,4.6573257E1,0E0,0E0],"parents":[2147483647,0,0,2,2,4,4],"right_children":[2,-1,4,-1,6,-1,-1],"split_conditions":[9.856847E-1,5.6744445E-2,9.944942E-1,5.3063966E-2,1E0,5.985117E-2,-5.0458577E-3],"split_indices":[5644,0,5638,0,5662,0,0],"split_type":[0,0,0,0,0,0,0],"sum_hessian":[1.2382048E3,3.7770786E1,1.200434E3,3.852335E1,1.1619106E3,2.683072E1,1.13508E3],"tree_param":{"num_deleted":"0","num_feature":"5670","num_nodes":"7","size_leaf_vector":"1"}},{"base_weights":[2.9055478E-2,5.6323495E-2,-5.724507E-3,5.6499135E-2,-3.948246E-2,5.4504495E-2,-3.5417005E-3],"categories":[],"categories_nodes":[],"categories_segments":[],"categories_sizes":[],"default_left":[0,0,0,0,0,0,0],"id":88,"left_children":[1,-1,3,-1,5,-1,-1],"loss_changes":[4.79137E1,0E0,4.6543182E1,0E0,4.1856934E1,0E0,0E0],"parents":[2147483647,0,0,2,2,4,4],"right_children":[2,-1,4,-1,6,-1,-1],"split_conditions":[9.924835E-1,5.6323495E-2,9.8056823E-1,5.6499135E-2,9.947704E-1,5.4504495E-2,-3.5417005E-3],"split_indices":[5644,0,5654,0,5639,0,0],"split_type":[0,0,0,0,0,0,0],"sum_hessian":[1.2506453E3,3.7060677E1,1.2135846E3,3.353994E1,1.1800447E3,3.0413816E1,1.1496309E3],"tree_param":{"num_deleted":"0","num_feature":"5670","num_nodes":"7","size_leaf_vector":"1"}},{"base_weights":[4.91814E-3,1.8983595E-1,-2.2015339E-1,3.4682733E-1,-1.510692E-1,-3.3118054E-3,-5.998029E-1,2.2082621E-2,-5.6332974E-3,5.109031E-2,-1.0399482E-2,7.182196E-2,-2.1405173E-3,5.052799E-2,-3.2702353E-2],"categories":[],"categories_nodes":[],"categories_segments":[],"categories_sizes":[],"default_left":[0,0,0,0,0,0,0,0,0,0,0,0,0,0,0],"id":89,"left_children":[1,3,5,7,9,11,13,-1,-1,-1,-1,-1,-1,-1,-1],"loss_changes":[5.2065784E1,3.6866707E1,4.637048E1,2.063187E1,1.4755607E1,2.0463491E1,1.885157E1,0E0,0E0,0E0,0E0,0E0,0E0,0E0,0E0],"parents":[2147483647,0,0,1,1,2,2,3,3,4,4,5,5,6,6],"right_children":[2,4,6,8,10,12,14,-1,-1,-1,-1,-1,-1,-1,-1],"split_conditions":[2.00001E0,4.6872285E-1,-3.8609758E-1,2.00001E0,9.853066E-1,1E0,9.690442E-1,2.2082621E-2,-5.6332974E-3,5.109031E-2,-1.0399482E-2,7.182196E-2,-2.1405173E-3,5.052799E-2,-3.2702353E-2],"split_indices":[5645,1,1,5661,5659,5667,5644,0,0,0,0,0,0,0,0],"split_type":[0,0,0,0,0,0,0,0,0,0,0,0,0,0,0],"sum_hessian":[1.2480544E3,6.855163E2,5.6253815E2,4.6954968E2,2.1596663E2,3.5917014E2,2.0336804E2,3.8945435E2,8.009535E1,8.7377E0,2.0722893E2,8.106331E0,3.510638E2,5.7052817E0,1.9766277E2],"tree_param":{"num_deleted":"0","num_feature":"5670","num_nodes":"15","size_leaf_vector":"1"}},{"base_weights":[-3.0608731E-3,5.5886585E-2,-3.945894E-2,5.4185905E-2,-7.350265E-2,1.8547025E-3,-2.0616319E-2],"categories":[],"categories_nodes":[],"categories_segments":[],"categories_sizes":[],"default_left":[0,0,0,0,0,0,0],"id":90,"left_children":[1,-1,3,-1,5,-1,-1],"loss_changes":[5.0613197E1,0E0,4.6062885E1,0E0,4.3912903E1,0E0,0E0],"parents":[2147483647,0,0,2,2,4,4],"right_children":[2,-1,4,-1,6,-1,-1],"split_conditions":[9.986464E-1,5.5886585E-2,9.976283E-1,5.4185905E-2,5.0942856E-1,1.8547025E-3,-2.0616319E-2],"split_indices":[5648,0,5652,0,1,0,0],"split_type":[0,0,0,0,0,0,0],"sum_hessian":[1.2402028E3,3.752103E1,1.2026816E3,3.3934093E1,1.1687476E3,8.819181E2,2.868295E2],"tree_param":{"num_deleted":"0","num_feature":"5670","num_nodes":"7","size_leaf_vector":"1"}},{"base_weights":[1.3645362E-2,5.6476623E-2,-2.038552E-2,1.5455997E-1,-2.279947E-1,-1.2829724E-2,1.3078141E-2,-9.6484146E-4,-2.658135E-2],"categories":[],"categories_nodes":[],"categories_segments":[],"categories_sizes":[],"default_left":[0,0,0,0,0,0,0,0,0],"id":91,"left_children":[1,-1,3,5,7,-1,-1,-1,-1],"loss_changes":[4.684991E1,0E0,4.3458405E1,2.8657297E1,3.4610115E1,0E0,0E0,0E0,0E0],"parents":[2147483647,0,0,2,2,3,3,4,4],"right_children":[2,-1,4,6,8,-1,-1,-1,-1],"split_conditions":[9.8199344E-1,5.6476623E-2,-3.8609758E-1,2.00001E0,2.00001E0,-1.2829724E-2,1.3078141E-2,-9.6484146E-4,-2.658135E-2],"split_indices":[5654,0,1,5647,5656,0,0,0,0],"split_type":[0,0,0,0,0,0,0,0,0],"sum_hessian":[1.228386E3,3.5011024E1,1.193375E3,6.475811E2,5.457939E2,1.3310367E2,5.144774E2,3.246052E2,2.2118867E2],"tree_param":{"num_deleted":"0","num_feature":"5670","num_nodes":"9","size_leaf_vector":"1"}},{"base_weights":[3.2927934E-2,2.1458945E-1,-1.8828543E-1,3.8292173E-1,-4.9590416E-2,5.7681717E-2,-2.2562468E-1,2.7264128E-2,8.714908E-3,4.66804E-3,-2.1296555E-2,1.2362459E-3,-2.1677084E-2],"categories":[],"categories_nodes":[],"categories_segments":[],"categories_sizes":[],"default_left":[0,1,0,0,1,0,0,0,0,0,0,0,0],"id":92,"left_children":[1,3,5,7,9,-1,11,-1,-1,-1,-1,-1,-1],"loss_changes":[4.975919E1,3.0300426E1,2.8265572E1,1.3867405E1,1.438938E1,0E0,2.8393438E1,0E0,0E0,0E0,0E0,0E0,0E0],"parents":[2147483647,0,0,1,1,2,2,3,3,4,4,6,6],"right_children":[2,4,6,8,10,-1,12,-1,-1,-1,-1,-1,-1],"split_conditions":[2.00001E0,9.921584E-1,9.610207E-1,2.00001E0,9.986464E-1,5.7681717E-2,-9.152721E-1,2.7264128E-2,8.714908E-3,4.66804E-3,-2.1296555E-2,1.2362459E-3,-2.1677084E-2],"split_indices":[5645,5650,5662,5656,5648,0,1,0,0,0,0,0,0],"split_type":[0,0,0,0,0,0,0,0,0,0,0,0,0],"sum_hessian":[1.23515E3,6.784777E2,5.566723E2,4.1423584E2,2.6424188E2,1.3783693E1,5.4288855E2,2.3131534E2,1.8292049E2,1.9212592E2,7.211595E1,2.4669168E2,2.961969E2],"tree_param":{"num_deleted":"0","num_feature":"5670","num_nodes":"13","size_leaf_vector":"1"}},{"base_weights":[8.4085725E-3,5.774808E-2,-2.5711915E-2,5.407205E-2,-5.9557885E-2,6.388823E-2,-4.3342947E-3],"categories":[],"categories_nodes":[],"categories_segments":[],"categories_sizes":[],"default_left":[0,0,0,0,0,0,0],"id":93,"left_children":[1,-1,3,-1,5,-1,-1],"loss_changes":[4.712777E1,0E0,4.373732E1,0E0,4.1194942E1,0E0,0E0],"parents":[2147483647,0,0,2,2,4,4],"right_children":[2,-1,4,-1,6,-1,-1],"split_conditions":[9.8067236E-1,5.774808E-2,9.956367E-1,5.407205E-2,9.986464E-1,6.388823E-2,-4.3342947E-3],"split_indices":[5658,0,5640,0,5664,0,0],"split_type":[0,0,0,0,0,0,0],"sum_hessian":[1.1991433E3,3.331496E1,1.1658282E3,3.311765E1,1.1327107E3,2.1072384E1,1.1116383E3],"tree_param":{"num_deleted":"0","num_feature":"5670","num_nodes":"7","size_leaf_vector":"1"}},{"base_weights":[-1.5451447E-2,5.5236857E-2,-4.8828416E-2,5.3940307E-2,-8.087592E-2,2.0613968E-2,-7.847991E-3],"categories":[],"categories_nodes":[],"categories_segments":[],"categories_sizes":[],"default_left":[0,0,0,0,0,0,0],"id":94,"left_children":[1,-1,3,-1,5,-1,-1],"loss_changes":[4.478311E1,0E0,4.2142033E1,0E0,4.2641747E1,0E0,0E0],"parents":[2147483647,0,0,2,2,4,4],"right_children":[2,-1,4,-1,6,-1,-1],"split_conditions":[9.967817E-1,5.5236857E-2,9.947704E-1,5.3940307E-2,-1.240918E0,2.0613968E-2,-7.847991E-3],"split_indices":[5641,0,5639,0,1,0,0],"split_type":[0,0,0,0,0,0,0],"sum_hessian":[1.1969379E3,3.3152096E1,1.1637858E3,3.0720741E1,1.1330651E3,1.5038268E2,9.826824E2],"tree_param":{"num_deleted":"0","num_feature":"5670","num_nodes":"7","size_leaf_vector":"1"}},{"base_weights":[8.51788E-3,5.499937E-2,-2.6181374E-2,5.8841553E-2,-5.6374192E-2,5.5009097E-2,-4.352614E-3],"categories":[],"categories_nodes":[],"categories_segments":[],"categories_sizes":[],"default_left":[0,0,0,0,0,0,0],"id":95,"left_children":[1,-1,3,-1,5,-1,-1],"loss_changes":[4.5692047E1,0E0,4.2368324E1,0E0,4.0481533E1,0E0,0E0],"parents":[2147483647,0,0,2,2,4,4],"right_children":[2,-1,4,-1,6,-1,-1],"split_conditions":[9.8498964E-1,5.499937E-2,1E0,5.8841553E-2,9.897155E-1,5.5009097E-2,-4.352614E-3],"split_indices":[5661,0,5662,0,5644,0,0],"split_type":[0,0,0,0,0,0,0],"sum_hessian":[1.2009729E3,3.567399E1,1.1652988E3,2.7054459E1,1.1382444E3,2.7976707E1,1.1102677E3],"tree_param":{"num_deleted":"0","num_feature":"5670","num_nodes":"7","size_leaf_vector":"1"}},{"base_weights":[2.116262E-3,5.469082E-2,-3.1460725E-2,5.534134E-2,-6.250459E-2,5.195222E-2,-4.6100016E-3],"categories":[],"categories_nodes":[],"categories_segments":[],"categories_sizes":[],"default_left":[0,0,0,0,0,0,0],"id":96,"left_children":[1,-1,3,-1,5,-1,-1],"loss_changes":[4.3995384E1,0E0,4.1046665E1,0E0,3.7086605E1,0E0,0E0],"parents":[2147483647,0,0,2,2,4,4],"right_children":[2,-1,4,-1,6,-1,-1],"split_conditions":[9.986464E-1,5.469082E-2,9.80871E-1,5.534134E-2,9.944942E-1,5.195222E-2,-4.6100016E-3],"split_indices":[5648,0,5654,0,5638,0,0],"split_type":[0,0,0,0,0,0,0],"sum_hessian":[1.194417E3,3.4315605E1,1.1601013E3,2.9333311E1,1.1307681E3,2.825616E1,1.1025118E3],"tree_param":{"num_deleted":"0","num_feature":"5670","num_nodes":"7","size_leaf_vector":"1"}},{"base_weights":[2.706011E-2,5.4368623E-2,-5.918827E-3,1.6598575E-1,-2.1128935E-1,9.820795E-3,-4.9456812E-2,6.2213328E-2,-1.2655603E-2],"categories":[],"categories_nodes":[],"categories_segments":[],"categories_sizes":[],"default_left":[0,0,0,0,0,0,0,0,0],"id":97,"left_children":[1,-1,3,5,7,-1,-1,-1,-1],"loss_changes":[4.303805E1,0E0,4.2132305E1,2.303642E1,3.3487152E1,0E0,0E0,0E0,0E0],"parents":[2147483647,0,0,2,2,3,3,4,4],"right_children":[2,-1,4,6,8,-1,-1,-1,-1],"split_conditions":[9.956367E-1,5.4368623E-2,2.00001E0,1.6084834E0,9.986464E-1,9.820795E-3,-4.9456812E-2,6.2213328E-2,-1.2655603E-2],"split_indices":[5640,0,5645,1,5664,0,0,0,0],"split_type":[0,0,0,0,0,0,0,0,0],"sum_hessian":[1.225916E3,3.5624374E1,1.1902916E3,6.478294E2,5.424623E2,6.324986E2,1.5330816E1,1.3879972E1,5.285823E2],"tree_param":{"num_deleted":"0","num_feature":"5670","num_nodes":"9","size_leaf_vector":"1"}},{"base_weights":[-9.034049E-3,5.3574543E-2,-4.2975828E-2,5.4098386E-2,-7.462134E-2,5.3320497E-2,-5.2242414E-3],"categories":[],"categories_nodes":[],"categories_segments":[],"categories_sizes":[],"default_left":[0,0,0,0,0,0,0],"id":98,"left_children":[1,-1,3,-1,5,-1,-1],"loss_changes":[4.3056793E1,0E0,4.0627953E1,0E0,3.79271E1,0E0,0E0],"parents":[2147483647,0,0,2,2,4,4],"right_children":[2,-1,4,-1,6,-1,-1],"split_conditions":[9.921584E-1,5.3574543E-2,9.947704E-1,5.4098386E-2,9.967817E-1,5.3320497E-2,-5.2242414E-3],"split_indices":[5650,0,5639,0,5640,0,0],"split_type":[0,0,0,0,0,0,0],"sum_hessian":[1.1734324E3,3.425141E1,1.139181E3,2.9720573E1,1.1094604E3,2.6883314E1,1.0825771E3],"tree_param":{"num_deleted":"0","num_feature":"5670","num_nodes":"7","size_leaf_vector":"1"}},{"base_weights":[6.273682E-2,5.34296E-2,3.1694185E-2,4.949053E-1,-4.2646144E-2,-3.0973438E-2,2.7078629E-2,5.4672267E-2,-3.7600733E-3],"categories":[],"categories_nodes":[],"categories_segments":[],"categories_sizes":[],"default_left":[0,0,0,0,0,0,0,0,0],"id":99,"left_children":[1,-1,3,5,7,-1,-1,-1,-1],"loss_changes":[3.7290596E1,0E0,4.0199562E1,8.891117E0,3.7200485E1,0E0,0E0,0E0,0E0],"parents":[2147483647,0,0,2,2,3,3,4,4],"right_children":[2,-1,4,6,8,-1,-1,-1,-1],"split_conditions":[9.921584E-1,5.34296E-2,-1.240918E0,-2.5093699E0,9.8498964E-1,-3.0973438E-2,2.7078629E-2,5.4672267E-2,-3.7600733E-3],"split_indices":[5650,0,1,4,5644,0,0,0,0],"split_type":[0,0,0,0,0,0,0,0,0],"sum_hessian":[1.1979286E3,3.426619E1,1.1636625E3,1.5994041E2,1.00372205E3,5.602541E0,1.5433788E2,2.651371E1,9.772083E2],"tree_param":{"num_deleted":"0","num_feature":"5670","num_nodes":"9","size_leaf_vector":"1"}},{"base_weights":[-2.4514606E-2,5.5869974E-2,-5.690963E-2,5.3295035E-2,-8.754422E-2,5.326866E-2,-5.8482783E-3],"categories":[],"categories_nodes":[],"categories_segments":[],"categories_sizes":[],"default_left":[0,0,0,0,0,0,0],"id":100,"left_children":[1,-1,3,-1,5,-1,-1],"loss_changes":[4.432902E1,0E0,4.0185474E1,0E0,3.8677917E1,0E0,0E0],"parents":[2147483647,0,0,2,2,4,4],"right_children":[2,-1,4,-1,6,-1,-1],"split_conditions":[9.993466E-1,5.5869974E-2,9.811437E-1,5.3295035E-2,9.976283E-1,5.326866E-2,-5.8482783E-3],